{"learner":{"attributes":{"scikit_learn":"{\"_estimator_type\": \"regressor\"}"},"feature_names":["temperature_2m_mean","precipitation_sum","wind_speed_10m_max","wind_direction_10m_dominant"],"feature_types":["float","float","float","float"],"gradient_booster":{"model":{"gbtree_model_param":{"num_parallel_tree":"1","num_trees":"100"},"iteration_indptr":[0,1,2,3,4,5,6,7,8,9,10,11,12,13,14,15,16,17,18,19,20,21,22,23,24,25,26,27,28,29,30,31,32,33,34,35,36,37,38,39,40,41,42,43,44,45,46,47,48,49,50,51,52,53,54,55,56,57,58,59,60,61,62,63,64,65,66,67,68,69,70,71,72,73,74,75,76,77,78,79,80,81,82,83,84,85,86,87,88,89,90,91,92,93,94,95,96,97,98,99,100],"tree_info":[0,0,0,0,0,0,0,0,0,0,0,0,0,0,0,0,0,0,0,0,0,0,0,0,0,0,0,0,0,0,0,0,0,0,0,0,0,0,0,0,0,0,0,0,0,0,0,0,0,0,0,0,0,0,0,0,0,0,0,0,0,0,0,0,0,0,0,0,0,0,0,0,0,0,0,0,0,0,0,0,0,0,0,0,0,0,0,0,0,0,0,0,0,0,0,0,0,0,0,0],"trees":[{"base_weights":[6.7503216E-9,8.444405E-1,-1.1355473E0,-4.7462147E-1,1.2901576E0,-1.2303168E0,9.062532E-1,-6.2384075E-1,1.7373738E0,2.2780406E0,7.8547484E-1,-2.1962147E-2,-1.3233764E0,3.123817E0,-1.9372308E-1,8.3393204E-1,-6.994884E-1,2.4447656E0,-3.0784112E-1,1.8388412E0,3.5942938E0,3.3333185E0,5.5674607E-1,-2.4382745E-1,1.6826656E0,-9.180932E-1,-1.4954296E0,1.5481589E0,3.8030274E0,4.222798E-1,-3.3049226E-1,1.7607988E0,-8.158411E-1,-9.4469094E-1,-3.2663697E-1,1.2032988E0,1.1826478E0,6.3779786E-2,-1.4733031E-1,1.4882034E0,4.55638E0,6.1292987E0,1.4009281E0,1.5253612E-1,1.4272398E1,1.1862459E0,1.11125894E-1,3.1251296E-1,-1.0508645E0,5.820477E-1,5.927979E-2,-9.521972E-1,1.3874173E-1,-1.0457088E0,-1.7095243E0,1.3427979E-1,5.134197E-1,2.3927976E-1,4.170999E0,-5.2206135E-1,3.170397E-1,-2.4396029E-1,8.2629967E-1,1.8039703E-2,-4.2596027E-1,-1.706872E-1,-3.6718464E-1,-1.8294135E-1,1.1815344E-1,-1.10960275E-1,5.3679967E-1,1.20711856E-1,6.310404E-1,5.953368E-1,1.6358558E0,2.8362746E0,4.6967041E-1,7.0230633E-1,9.693844E-2,1.1964477E0,-1.6135328E-1,1.662228E1,6.613647E-1,6.302857E-1,1.1869265E-1,7.6591724E-4,1.4337997E0,3.4914508E-1,-6.752706E-2,-4.021758E-1,-1.0880608E-1,-6.694664E-3,-3.0611026E-1,-4.5955232E-1,8.630398E-1,-1.4055525E-1,-3.5618463E-1,-3.6083156E-1,-5.256853E-1,1.7460399E0,5.674197E-1,-1.9162777E-1,2.5427982E-1],"categories":[],"categories_nodes":[],"categories_segments":[],"categories_sizes":[],"default_left":[0,0,0,0,0,0,0,0,0,0,0,0,0,0,0,0,0,0,0,0,0,0,0,0,0,0,0,0,0,0,0,0,0,0,0,0,0,0,0,0,0,0,0,0,0,0,0,0,0,0,0,0,0,0,0,0,0,0,0,0,0,0,0,0,0,0,0,0,0,0,0,0,0,0,0,0,0,0,0,0,0,0,0,0,0,0,0,0,0,0,0,0,0,0,0,0,0,0,0,0,0,0,0],"id":0,"left_children":[1,3,5,7,9,11,13,15,17,19,21,23,25,27,29,31,33,35,37,39,41,43,45,47,49,51,53,55,57,-1,59,61,63,65,67,69,-1,-1,-1,71,73,75,77,79,81,83,85,87,89,-1,-1,91,93,95,97,-1,-1,-1,99,101,-1,-1,-1,-1,-1,-1,-1,-1,-1,-1,-1,-1,-1,-1,-1,-1,-1,-1,-1,-1,-1,-1,-1,-1,-1,-1,-1,-1,-1,-1,-1,-1,-1,-1,-1,-1,-1,-1,-1,-1,-1,-1,-1],"loss_changes":[1.6435581E3,5.7854584E2,1.4256384E2,8.3271835E1,3.6465784E2,7.8573E1,8.110098E1,2.6388176E1,2.390089E1,1.3675891E2,2.8253357E2,1.9698364E1,4.3881958E1,5.884552E0,5.5024657E0,1.978597E1,2.007901E1,1.7563972E1,5.8128697E-1,1.7235907E2,3.3058502E2,1.389616E3,1.2582068E2,2.0981827E1,1.9109936E0,7.196411E0,4.1924744E1,1.3225555E-1,4.4145966E0,0E0,6.3984795E0,2.2698666E1,2.7309356E0,1.3363785E1,1.86017E1,8.03724E0,0E0,0E0,0E0,1.1138989E2,3.759793E1,4.1007568E2,3.3693436E1,8.688225E1,4.345572E3,1.3367847E2,1.3379367E2,1.3076548E1,3.3020039E0,0E0,0E0,1.2021393E1,3.642586E1,1.1619247E1,4.5230103E0,0E0,0E0,0E0,1.15479965E1,3.7381425E0,0E0,0E0,0E0,0E0,0E0,0E0,0E0,0E0,0E0,0E0,0E0,0E0,0E0,0E0,0E0,0E0,0E0,0E0,0E0,0E0,0E0,0E0,0E0,0E0,0E0,0E0,0E0,0E0,0E0,0E0,0E0,0E0,0E0,0E0,0E0,0E0,0E0,0E0,0E0,0E0,0E0,0E0,0E0],"parents":[2147483647,0,0,1,1,2,2,3,3,4,4,5,5,6,6,7,7,8,8,9,9,10,10,11,11,12,12,13,13,14,14,15,15,16,16,17,17,18,18,19,19,20,20,21,21,22,22,23,23,24,24,25,25,26,26,27,27,28,28,30,30,31,31,32,32,33,33,34,34,35,35,39,39,40,40,41,41,42,42,43,43,44,44,45,45,46,46,47,47,48,48,51,51,52,52,53,53,54,54,58,58,59,59],"right_children":[2,4,6,8,10,12,14,16,18,20,22,24,26,28,30,32,34,36,38,40,42,44,46,48,50,52,54,56,58,-1,60,62,64,66,68,70,-1,-1,-1,72,74,76,78,80,82,84,86,88,90,-1,-1,92,94,96,98,-1,-1,-1,100,102,-1,-1,-1,-1,-1,-1,-1,-1,-1,-1,-1,-1,-1,-1,-1,-1,-1,-1,-1,-1,-1,-1,-1,-1,-1,-1,-1,-1,-1,-1,-1,-1,-1,-1,-1,-1,-1,-1,-1,-1,-1,-1,-1],"split_conditions":[2.3659216E2,8.6734856E1,1.8842417E1,1.8600748E1,1.639867E2,1.1966953E1,1.2984975E1,9.3876505E0,1.7072504E1,1.5175465E2,9.299167E-1,9.000001E-1,2.5994666E2,1.0661107E1,1.9011166E1,1.7653333E0,5.163249E1,3E-1,1E-1,1.9342417E1,9.500751E0,2.1949987E-1,9.782001E0,7.936168E0,1.7369501E1,2.5926828E2,1.5986595E1,1.962575E1,1.9011166E1,4.222798E-1,4.1E0,2.1949987E-1,2.45075E0,1.5569998E0,1.2673667E1,4.1846004E1,1.1826478E0,6.3779786E-2,-1.4733031E-1,1E-1,1.3910169E1,7E-1,1.5894662E2,1.1298495E1,3.340834E-1,1.7651016E1,2.285283E1,9.504272E0,1.5067417E1,5.820477E-1,5.927979E-2,-2.7425E-1,2.7295977E1,-3.8888328E0,-3.3284166E0,1.3427979E-1,5.134197E-1,2.3927976E-1,1.9690336E1,3.4005957E2,3.170397E-1,-2.4396029E-1,8.2629967E-1,1.8039703E-2,-4.2596027E-1,-1.706872E-1,-3.6718464E-1,-1.8294135E-1,1.1815344E-1,-1.10960275E-1,5.3679967E-1,1.20711856E-1,6.310404E-1,5.953368E-1,1.6358558E0,2.8362746E0,4.6967041E-1,7.0230633E-1,9.693844E-2,1.1964477E0,-1.6135328E-1,1.662228E1,6.613647E-1,6.302857E-1,1.1869265E-1,7.6591724E-4,1.4337997E0,3.4914508E-1,-6.752706E-2,-4.021758E-1,-1.0880608E-1,-6.694664E-3,-3.0611026E-1,-4.5955232E-1,8.630398E-1,-1.4055525E-1,-3.5618463E-1,-3.6083156E-1,-5.256853E-1,1.7460399E0,5.674197E-1,-1.9162777E-1,2.5427982E-1],"split_indices":[3,3,0,0,3,2,2,2,2,3,0,1,3,2,0,0,3,1,1,0,0,0,0,0,0,3,2,0,0,0,1,0,0,0,0,3,0,0,0,1,2,1,3,2,0,2,0,2,0,0,0,0,2,0,0,0,0,0,0,3,0,0,0,0,0,0,0,0,0,0,0,0,0,0,0,0,0,0,0,0,0,0,0,0,0,0,0,0,0,0,0,0,0,0,0,0,0,0,0,0,0,0,0],"split_type":[0,0,0,0,0,0,0,0,0,0,0,0,0,0,0,0,0,0,0,0,0,0,0,0,0,0,0,0,0,0,0,0,0,0,0,0,0,0,0,0,0,0,0,0,0,0,0,0,0,0,0,0,0,0,0,0,0,0,0,0,0,0,0,0,0,0,0,0,0,0,0,0,0,0,0,0,0,0,0,0,0,0,0,0,0,0,0,0,0,0,0,0,0,0,0,0,0,0,0,0,0,0,0],"sum_hessian":[1.712E3,9.82E2,7.3E2,2.48E2,7.34E2,6.98E2,3.2E1,2.33E2,1.5E1,2.47E2,4.87E2,5E1,6.48E2,1E1,2.2E1,1.1E1,2.22E2,1.1E1,4E0,1.87E2,6E1,3.9E1,4.48E2,4.5E1,5E0,1.95E2,4.53E2,4E0,6E0,1E0,2.1E1,7E0,4E0,1.33E2,8.9E1,7E0,4E0,1E0,3E0,1.67E2,2E1,2.7E1,3.3E1,3.1E1,8E0,1.85E2,2.63E2,2.7E1,1.8E1,4E0,1E0,1.89E2,6E0,1.48E2,3.05E2,1E0,3E0,1E0,5E0,1.9E1,2E0,2E0,5E0,2E0,2E0,5.8E1,7.5E1,6.4E1,2.5E1,2E0,5E0,6.1E1,1.06E2,6E0,1.4E1,1.5E1,1.2E1,1.7E1,1.6E1,4E0,2.7E1,1E0,7E0,8.5E1,1E2,2.58E2,5E0,1E1,1.7E1,1.2E1,6E0,1.3E1,1.76E2,4E0,2E0,3E1,1.18E2,2.6E1,2.79E2,2E0,3E0,1.8E1,1E0],"tree_param":{"num_deleted":"0","num_feature":"4","num_nodes":"103","size_leaf_vector":"1"}},{"base_weights":[1.8569132E-2,7.7335685E-1,-6.78635E-1,6.525787E-1,5.354856E0,-2.5758892E-1,-9.454686E-1,-3.278306E-1,1.0912622E0,1.4128938E1,9.129529E-1,-4.7198913E-1,7.553692E-1,-6.363024E-1,-1.1830753E0,-4.3111193E-1,1.4366138E0,1.6550502E0,6.78164E-1,1.7567534E0,-3.1355384E-1,-5.18759E-1,2.96667E0,1.6908394E0,-3.7234753E-2,-4.5859566E-1,-9.972279E-1,-1.2000377E0,8.146105E-2,-5.849329E-1,1.24426365E-1,1.860556E0,-8.838087E-2,1.3030555E0,3.0278146E0,6.154818E-1,1.3587358E0,2.811696E-1,1.8269347E0,6.0097593E-1,-2.560684E-1,-1.9196923E-1,-8.63102E-1,2.2597368E0,-3.198232E-1,3.0584528E0,8.820513E-1,-4.6916878E-1,5.411596E-1,-6.1225414E-1,1.5131563E0,-1.1004484E0,-3.3781126E-1,-1.2055706E0,7.063258E-2,-1.1988026E-1,1.3302395E-1,-1.4444692E-1,-3.776407E-1,6.101606E-1,-5.0653752E-2,2.351106E-1,8.9881223E-1,5.4212812E-2,-7.149423E-2,2.91204E-1,8.679158E-1,1.4246228E0,3.0767906E-1,3.4968346E-1,5.9397433E-2,5.6023693E-1,-3.0773895E-2,2.6556376E-1,-1.2280437E-1,-2.2691058E-1,-3.7661967E-1,1.1339512E0,3.4583215E-2,1.484477E-1,8.3469373E-1,6.0770756E-1,-2.1212779E-1,3.646082E-1,2.4756894E-2,-2.4395788E-1,-1.141456E-1,1.2583221E-1,1.3963469E0,-1.0755266E-1,-3.584922E-1,3.3769634E-1,-1.7195575E-1,-2.5873914E-1,-3.712455E-1,-9.763475E-2,7.452396E-2],"categories":[],"categories_nodes":[],"categories_segments":[],"categories_sizes":[],"default_left":[0,0,0,0,0,0,0,0,0,0,0,0,0,0,0,0,0,0,0,0,0,0,0,0,0,0,0,0,0,0,0,0,0,0,0,0,0,0,0,0,0,0,0,0,0,0,0,0,0,0,0,0,0,0,0,0,0,0,0,0,0,0,0,0,0,0,0,0,0,0,0,0,0,0,0,0,0,0,0,0,0,0,0,0,0,0,0,0,0,0,0,0,0,0,0,0,0],"id":1,"left_children":[1,3,5,7,9,11,13,15,17,-1,19,21,23,25,27,29,31,33,35,37,39,41,43,45,47,49,51,53,55,57,59,61,63,65,67,69,-1,71,-1,-1,-1,73,75,-1,-1,77,79,81,83,85,87,89,91,93,-1,95,-1,-1,-1,-1,-1,-1,-1,-1,-1,-1,-1,-1,-1,-1,-1,-1,-1,-1,-1,-1,-1,-1,-1,-1,-1,-1,-1,-1,-1,-1,-1,-1,-1,-1,-1,-1,-1,-1,-1,-1,-1],"loss_changes":[9.0197577E2,4.5190842E2,9.985971E1,3.457195E2,3.8506582E3,7.5717445E1,3.9282867E1,4.5995647E1,1.2813702E2,0E0,2.1249382E1,4.7695953E1,4.529186E1,1.4871864E1,6.6828003E0,2.0239796E1,9.215574E0,1.0912463E2,7.493881E1,7.501271E1,1.2969736E1,3.1792206E1,8.1680824E1,2.8273354E1,8.7480545E0,5.000861E1,4.9373474E0,2.6903381E0,4.17536E-1,1.2289734E1,2.9462698E1,1.1102257E1,2.0444782E-1,9.654526E1,1.570763E2,7.280549E1,0E0,6.278926E0,0E0,0E0,0E0,3.4783337E1,4.8286743E0,0E0,0E0,2.0795876E1,1.2604005E1,1.3304086E1,4.5379033E0,6.7228622E0,3.927642E1,4.2704544E0,4.7787604E0,2.239624E0,0E0,3.8368458E-1,0E0,0E0,0E0,0E0,0E0,0E0,0E0,0E0,0E0,0E0,0E0,0E0,0E0,0E0,0E0,0E0,0E0,0E0,0E0,0E0,0E0,0E0,0E0,0E0,0E0,0E0,0E0,0E0,0E0,0E0,0E0,0E0,0E0,0E0,0E0,0E0,0E0,0E0,0E0,0E0,0E0],"parents":[2147483647,0,0,1,1,2,2,3,3,4,4,5,5,6,6,7,7,8,8,10,10,11,11,12,12,13,13,14,14,15,15,16,16,17,17,18,18,19,19,20,20,21,21,22,22,23,23,24,24,25,25,26,26,27,27,28,28,29,29,30,30,31,31,32,32,33,33,34,34,35,35,37,37,41,41,42,42,45,45,46,46,47,47,48,48,49,49,50,50,51,51,52,52,53,53,55,55],"right_children":[2,4,6,8,10,12,14,16,18,-1,20,22,24,26,28,30,32,34,36,38,40,42,44,46,48,50,52,54,56,58,60,62,64,66,68,70,-1,72,-1,-1,-1,74,76,-1,-1,78,80,82,84,86,88,90,92,94,-1,96,-1,-1,-1,-1,-1,-1,-1,-1,-1,-1,-1,-1,-1,-1,-1,-1,-1,-1,-1,-1,-1,-1,-1,-1,-1,-1,-1,-1,-1,-1,-1,-1,-1,-1,-1,-1,-1,-1,-1,-1,-1],"split_conditions":[2.1567303E2,2.13416E2,1.6203999E1,8.6734856E1,3.340834E-1,1.7246584E1,2.5994666E2,1.8748665E1,1.618219E2,1.4128938E1,1.5124284E1,1.6167967E1,1.2984975E1,1.0000001E0,2.0015333E1,2.3E0,1.7072504E1,1.5175465E2,2.285283E1,2.1449258E2,2.2049167E0,5.7778325E0,2.2211848E2,2.4606758E2,4E-1,9.0000004E-1,1.4981999E1,2.09E1,1E-1,2.1261345E1,2.8E0,3E-1,1E-1,1.8240332E1,6E-1,9.782001E0,1.3587358E0,8.707237E0,1.8269347E0,6.0097593E-1,-2.560684E-1,2.4149667E2,3.2287943E2,2.2597368E0,-3.198232E-1,1.975075E1,1.03E1,1.741325E1,2.3317433E2,2.1578989E1,2.3593677E2,1.7782688E1,1.5598666E1,-3.126334E0,7.063258E-2,2.0619503E1,1.3302395E-1,-1.4444692E-1,-3.776407E-1,6.101606E-1,-5.0653752E-2,2.351106E-1,8.9881223E-1,5.4212812E-2,-7.149423E-2,2.91204E-1,8.679158E-1,1.4246228E0,3.0767906E-1,3.4968346E-1,5.9397433E-2,5.6023693E-1,-3.0773895E-2,2.6556376E-1,-1.2280437E-1,-2.2691058E-1,-3.7661967E-1,1.1339512E0,3.4583215E-2,1.484477E-1,8.3469373E-1,6.0770756E-1,-2.1212779E-1,3.646082E-1,2.4756894E-2,-2.4395788E-1,-1.141456E-1,1.2583221E-1,1.3963469E0,-1.0755266E-1,-3.584922E-1,3.3769634E-1,-1.7195575E-1,-2.5873914E-1,-3.712455E-1,-9.763475E-2,7.452396E-2],"split_indices":[3,3,2,3,0,0,3,0,3,0,2,2,2,1,0,1,2,3,0,3,0,0,3,3,1,1,0,1,1,2,1,1,1,0,1,0,0,2,0,0,0,3,3,0,0,0,1,0,3,2,3,2,0,0,0,0,0,0,0,0,0,0,0,0,0,0,0,0,0,0,0,0,0,0,0,0,0,0,0,0,0,0,0,0,0,0,0,0,0,0,0,0,0,0,0,0,0],"split_type":[0,0,0,0,0,0,0,0,0,0,0,0,0,0,0,0,0,0,0,0,0,0,0,0,0,0,0,0,0,0,0,0,0,0,0,0,0,0,0,0,0,0,0,0,0,0,0,0,0,0,0,0,0,0,0,0,0,0,0,0,0,0,0,0,0,0,0,0,0,0,0,0,0,0,0,0,0,0,0,0,0,0,0,0,0,0,0,0,0,0,0,0,0,0,0,0,0],"sum_hessian":[1.712E3,8.22E2,8.9E2,8.02E2,2E1,3.46E2,5.44E2,2.48E2,5.54E2,1E0,1.9E1,2.86E2,6E1,2.38E2,3.06E2,2.35E2,1.3E1,2.33E2,3.21E2,1.1E1,8E0,2.83E2,3E0,2.7E1,3.3E1,1.61E2,7.7E1,3.02E2,4E0,1.84E2,5.1E1,1E1,3E0,1.87E2,4.6E1,3.17E2,4E0,9E0,2E0,1E0,7E0,1.46E2,1.37E2,1E0,2E0,9E0,1.8E1,1.9E1,1.4E1,1.5E2,1.1E1,6.6E1,1.1E1,3.01E2,1E0,3E0,1E0,1.61E2,2.3E1,6E0,4.5E1,6E0,4E0,1E0,2E0,1.56E2,3.1E1,2.4E1,2.2E1,1.36E2,1.81E2,1E0,8E0,2.4E1,1.22E2,1.1E2,2.7E1,7E0,2E0,1.6E1,2E0,1E0,1.8E1,5E0,9E0,7.9E1,7.1E1,9E0,2E0,8E0,5.8E1,1E0,1E1,2.8E1,2.73E2,2E0,1E0],"tree_param":{"num_deleted":"0","num_feature":"4","num_nodes":"97","size_leaf_vector":"1"}},{"base_weights":[2.9036721E-2,5.688632E-1,-4.6962345E-1,4.6404454E-1,4.5498395E0,8.5370064E-1,-5.167238E-1,-2.2484669E-1,7.7227855E-1,1.2009598E1,7.741323E-1,6.494841E-1,7.629682E-1,-1.939077E-1,-6.91669E-1,-3.1015086E-1,1.0367795E0,9.7589E-1,-2.3936696E-2,1.4260939E0,-1.8116458E-1,7.936554E-1,-2.0126915E-1,2.711167E-1,-3.9698958E-1,-7.3600143E-1,6.047102E-1,3.7497175E-1,-3.8660958E-1,1.4402542E0,-1.3891558E-1,1.4904709E0,5.8915114E-1,-1.3780455E-1,1.2705327E0,2.49765E-1,1.4615477E0,5.108295E-1,-6.295014E-1,1.1134149E0,4.1284552E-1,-2.0971483E-1,3.6360082E-1,7.9193217E-1,-1.9262324E-1,-4.614761E-1,7.162416E-1,-1.4304717E-1,-7.6090866E-1,1.6418492E0,-2.6535988E-4,2.9498863E-1,-1.7250328E-1,-1.5153529E-1,6.1050627E-2,2.9643577E-1,9.6206087E-1,4.6080887E-2,-7.513379E-2,3.7354365E-1,1.3404298E0,8.021466E-1,1.1693603E-1,3.65918E-2,-2.7644774E-1,4.7620133E-1,-2.256752E-2,-8.7601215E-2,-2.3207971E-1,1.3689208E-1,4.8343906E-1,2.618334E-2,2.748895E-1,2.8120674E-2,1.354997E-1,3.4407325E-2,1.0238713E0,2.3336245E-2,-2.0330249E-1,-2.4861703E-2,-1.8213718E-1,2.9423046E-1,-1.7401109E-2,1.391022E-1,-1.153377E-1,-2.3634134E-1,-1.0252502E-1,2.671495E-1,5.9482133E-1,-4.141241E-2,2.47957E-1],"categories":[],"categories_nodes":[],"categories_segments":[],"categories_sizes":[],"default_left":[0,0,0,0,0,0,0,0,0,0,0,0,0,0,0,0,0,0,0,0,0,0,0,0,0,0,0,0,0,0,0,0,0,0,0,0,0,0,0,0,0,0,0,0,0,0,0,0,0,0,0,0,0,0,0,0,0,0,0,0,0,0,0,0,0,0,0,0,0,0,0,0,0,0,0,0,0,0,0,0,0,0,0,0,0,0,0,0,0,0,0],"id":2,"left_children":[1,3,5,7,9,11,13,15,17,-1,19,21,-1,23,25,27,29,31,33,35,37,39,41,43,45,47,49,51,53,55,57,59,61,63,-1,65,-1,-1,67,69,71,-1,73,75,77,79,81,83,85,87,89,-1,-1,-1,-1,-1,-1,-1,-1,-1,-1,-1,-1,-1,-1,-1,-1,-1,-1,-1,-1,-1,-1,-1,-1,-1,-1,-1,-1,-1,-1,-1,-1,-1,-1,-1,-1,-1,-1,-1,-1],"loss_changes":[4.6138956E2,3.4131046E2,5.597632E1,1.7068242E2,2.7823843E3,9.044123E0,4.849095E1,2.7119427E1,8.9999146E1,0E0,1.2714693E1,3.7167091E0,0E0,2.8816795E1,3.2514282E1,1.2402731E1,7.7898827E0,8.708362E1,5.587001E1,4.742296E1,8.673608E0,2.5845213E0,1.6600804E0,2.261418E1,1.554966E1,7.866333E0,1.1921865E1,1.4434932E1,1.48586445E1,6.416212E0,2.0159277E-1,1.3249878E2,1.04522514E2,2.2913834E1,0E0,4.466386E0,0E0,0E0,1.6316652E-1,3.519209E0,2.0508316E0,0E0,2.8959721E-2,7.7709885E1,6.610873E0,1.1033394E1,2.5145898E0,3.5470657E0,5.5704956E0,2.7265549E-2,1.5949455E0,0E0,0E0,0E0,0E0,0E0,0E0,0E0,0E0,0E0,0E0,0E0,0E0,0E0,0E0,0E0,0E0,0E0,0E0,0E0,0E0,0E0,0E0,0E0,0E0,0E0,0E0,0E0,0E0,0E0,0E0,0E0,0E0,0E0,0E0,0E0,0E0,0E0,0E0,0E0,0E0],"parents":[2147483647,0,0,1,1,2,2,3,3,4,4,5,5,6,6,7,7,8,8,10,10,11,11,13,13,14,14,15,15,16,16,17,17,18,18,19,19,20,20,21,21,22,22,23,23,24,24,25,25,26,26,27,27,28,28,29,29,30,30,31,31,32,32,33,33,35,35,38,38,39,39,40,40,42,42,43,43,44,44,45,45,46,46,47,47,48,48,49,49,50,50],"right_children":[2,4,6,8,10,12,14,16,18,-1,20,22,-1,24,26,28,30,32,34,36,38,40,42,44,46,48,50,52,54,56,58,60,62,64,-1,66,-1,-1,68,70,72,-1,74,76,78,80,82,84,86,88,90,-1,-1,-1,-1,-1,-1,-1,-1,-1,-1,-1,-1,-1,-1,-1,-1,-1,-1,-1,-1,-1,-1,-1,-1,-1,-1,-1,-1,-1,-1,-1,-1,-1,-1,-1,-1,-1,-1,-1,-1],"split_conditions":[2.1567303E2,2.13416E2,1.0308831E1,8.6734856E1,3.340834E-1,9.299999E0,2.5307248E2,1.8600748E1,1.9866467E2,1.2009598E1,1.5124284E1,3.372875E2,7.629682E-1,1E-1,1.9204914E1,1.0308831E1,1.7072504E1,9.609084E0,2.285283E1,2.1449258E2,2.2049167E0,5.7778325E0,9.609084E0,1.6203999E1,1.8748665E1,-7.799249E0,1.3237038E1,2.45075E0,1.4494502E1,9.0000004E-1,1E-1,8.223667E0,1.0340668E2,2.0929594E1,1.2705327E0,8.707237E0,1.4615477E0,5.108295E-1,1.3463249E1,2.8725223E2,6E-1,-2.0971483E-1,1.8802832E1,1.5408671E1,8.696584E0,3.9611664E0,1.6575644E1,1.3276144E1,1.71695E1,3E-1,3.4005957E2,2.9498863E-1,-1.7250328E-1,-1.5153529E-1,6.1050627E-2,2.9643577E-1,9.6206087E-1,4.6080887E-2,-7.513379E-2,3.7354365E-1,1.3404298E0,8.021466E-1,1.1693603E-1,3.65918E-2,-2.7644774E-1,4.7620133E-1,-2.256752E-2,-8.7601215E-2,-2.3207971E-1,1.3689208E-1,4.8343906E-1,2.618334E-2,2.748895E-1,2.8120674E-2,1.354997E-1,3.4407325E-2,1.0238713E0,2.3336245E-2,-2.0330249E-1,-2.4861703E-2,-1.8213718E-1,2.9423046E-1,-1.7401109E-2,1.391022E-1,-1.153377E-1,-2.3634134E-1,-1.0252502E-1,2.671495E-1,5.9482133E-1,-4.141241E-2,2.47957E-1],"split_indices":[3,3,2,3,0,1,3,0,3,0,2,3,0,1,0,2,2,0,0,3,0,0,0,2,0,0,2,0,0,1,1,0,3,2,0,2,0,0,0,3,1,0,0,2,0,0,2,2,0,1,3,0,0,0,0,0,0,0,0,0,0,0,0,0,0,0,0,0,0,0,0,0,0,0,0,0,0,0,0,0,0,0,0,0,0,0,0,0,0,0,0],"split_type":[0,0,0,0,0,0,0,0,0,0,0,0,0,0,0,0,0,0,0,0,0,0,0,0,0,0,0,0,0,0,0,0,0,0,0,0,0,0,0,0,0,0,0,0,0,0,0,0,0,0,0,0,0,0,0,0,0,0,0,0,0,0,0,0,0,0,0,0,0,0,0,0,0,0,0,0,0,0,0,0,0,0,0,0,0,0,0,0,0,0,0],"sum_hessian":[1.712E3,8.22E2,8.9E2,8.02E2,2E1,3E1,8.6E2,2.48E2,5.54E2,1E0,1.9E1,2.8E1,2E0,3.03E2,5.57E2,2.33E2,1.5E1,4.41E2,1.13E2,1.1E1,8E0,2.4E1,4E0,9.2E1,2.11E2,5.39E2,1.8E1,2.3E1,2.1E2,1.1E1,4E0,1.88E2,2.53E2,1.11E2,2E0,9E0,2E0,1E0,7E0,1.2E1,1.2E1,2E0,2E0,4.3E1,4.9E1,2E2,1.1E1,2.2E1,5.17E2,6E0,1.2E1,1.4E1,9E0,1.75E2,3.5E1,1E1,1E0,1E0,3E0,1.75E2,1.3E1,2.1E1,2.32E2,8.4E1,2.7E1,1E0,8E0,3E0,4E0,6E0,6E0,8E0,4E0,1E0,1E0,3.5E1,8E0,3.2E1,1.7E1,5.6E1,1.44E2,8E0,3E0,6E0,1.6E1,4.85E2,3.2E1,3E0,3E0,1.1E1,1E0],"tree_param":{"num_deleted":"0","num_feature":"4","num_nodes":"91","size_leaf_vector":"1"}},{"base_weights":[3.339104E-2,4.213404E-1,-3.24988E-1,3.3096462E-1,3.8570745E0,-8.4043376E-2,-4.7780046E-1,-1.5848179E-1,5.847771E-1,1.0208158E1,6.472091E-1,-1.12960614E-1,2.42385E0,-3.460566E-1,-6.4502877E-1,-3.6740103E-1,4.586017E-1,1.0472769E0,2.4430412E-1,1.1578642E0,-1.0557646E-1,-2.3649904E-1,4.8780128E-1,1.7671956E0,-2.0859033E-1,-2.708838E-1,-5.790888E-1,-2.5445393E-1,-6.9150996E-1,2.8394992E-3,-7.033863E-1,-1.989801E-1,1.0175911E0,1.7540045E0,-4.907388E-3,1.6674122E-1,1.0600585E0,2.2019887E-1,1.1692382E0,4.3420509E-1,-4.806111E-1,4.6975142E-1,-3.0004853E-1,1.2303098E0,-9.434652E-2,-3.3324882E-1,2.4085367E-1,-7.0543224E-1,-3.0323845E-1,5.6766206E-1,-6.30485E-1,-8.041226E-1,-5.22411E-1,-4.236851E-2,3.8974988E-1,-1.7080119E-1,-5.185001E-1,-2.6822636E-1,5.676424E-2,5.656514E-1,-2.3895372E-1,-2.2629374E-1,6.158782E-1,-5.8067985E-2,1.6780263E0,2.5206474E-3,4.4777054E-1,-2.1845706E-1,1.6449599E-1,-5.6128623E-3,-1.6317727E-1,1.9186373E-1,-9.101284E-2,-2.21383E-2,-1.4509912E-1,1.3563588E0,2.3030587E-1,3.405278E-1,-6.1997436E-2,-1.8266644E-1,-7.350862E-2,4.734672E-1,-4.581641E-2,-7.711058E-2,-2.5208017E-1,2.2977728E-1,-1.6300833E-1,3.3054534E-1,-1.1264609E-1,-2.1240278E-1,5.694187E-3,-2.4735712E-1,7.2721126E-3,-1.7644612E-1,3.6004487E-2],"categories":[],"categories_nodes":[],"categories_segments":[],"categories_sizes":[],"default_left":[0,0,0,0,0,0,0,0,0,0,0,0,0,0,0,0,0,0,0,0,0,0,0,0,0,0,0,0,0,0,0,0,0,0,0,0,0,0,0,0,0,0,0,0,0,0,0,0,0,0,0,0,0,0,0,0,0,0,0,0,0,0,0,0,0,0,0,0,0,0,0,0,0,0,0,0,0,0,0,0,0,0,0,0,0,0,0,0,0,0,0,0,0,0,0],"id":3,"left_children":[1,3,5,7,9,11,13,15,17,-1,19,21,23,25,27,29,31,33,35,37,39,41,43,-1,-1,45,47,49,51,53,55,57,59,61,63,65,-1,67,-1,-1,69,71,73,75,77,79,81,83,85,87,89,91,93,-1,-1,-1,-1,-1,-1,-1,-1,-1,-1,-1,-1,-1,-1,-1,-1,-1,-1,-1,-1,-1,-1,-1,-1,-1,-1,-1,-1,-1,-1,-1,-1,-1,-1,-1,-1,-1,-1,-1,-1,-1,-1],"loss_changes":[2.3830032E2,2.5427086E2,3.2765877E1,9.984744E1,2.0116597E3,2.543871E1,1.1783836E1,3.562166E1,8.304509E1,0E0,7.8105183E0,2.5646074E1,4.7349686E1,5.2210655E0,4.1629333E0,2.5627443E1,2.5933168E1,1.6657674E2,7.747807E1,2.9967672E1,5.9372244E0,1.2977157E1,2.5618809E1,0E0,0E0,7.5482616E0,2.3651237E0,8.704713E0,3.6360168E0,1.8672623E1,1.3854454E1,9.073788E0,6.1332264E1,1.0202081E2,9.719131E1,6.296653E1,0E0,3.5111449E0,0E0,0E0,2.2377896E-1,3.3445668E0,1.0890301E1,3.611263E1,4.929305E0,4.9330406E0,1.3926272E1,2.807001E0,6.8344274E0,4.947813E0,9.7007465E-1,2.1493225E0,3.7872562E0,0E0,0E0,0E0,0E0,0E0,0E0,0E0,0E0,0E0,0E0,0E0,0E0,0E0,0E0,0E0,0E0,0E0,0E0,0E0,0E0,0E0,0E0,0E0,0E0,0E0,0E0,0E0,0E0,0E0,0E0,0E0,0E0,0E0,0E0,0E0,0E0,0E0,0E0,0E0,0E0,0E0,0E0],"parents":[2147483647,0,0,1,1,2,2,3,3,4,4,5,5,6,6,7,7,8,8,10,10,11,11,12,12,13,13,14,14,15,15,16,16,17,17,18,18,19,19,20,20,21,21,22,22,25,25,26,26,27,27,28,28,29,29,30,30,31,31,32,32,33,33,34,34,35,35,37,37,40,40,41,41,42,42,43,43,44,44,45,45,46,46,47,47,48,48,49,49,50,50,51,51,52,52],"right_children":[2,4,6,8,10,12,14,16,18,-1,20,22,24,26,28,30,32,34,36,38,40,42,44,-1,-1,46,48,50,52,54,56,58,60,62,64,66,-1,68,-1,-1,70,72,74,76,78,80,82,84,86,88,90,92,94,-1,-1,-1,-1,-1,-1,-1,-1,-1,-1,-1,-1,-1,-1,-1,-1,-1,-1,-1,-1,-1,-1,-1,-1,-1,-1,-1,-1,-1,-1,-1,-1,-1,-1,-1,-1,-1,-1,-1,-1,-1,-1],"split_conditions":[2.1567303E2,2.13416E2,1.6203999E1,9.817188E1,3.340834E-1,1.6167967E1,2.7384192E2,1.3832001E1,9.609084E0,1.0208158E1,1.5124284E1,1.7369501E1,2.2211848E2,2.5420181E1,1.6981165E1,1.5569998E0,5.163249E1,1.8678415E1,2.285283E1,2.1449258E2,2.2049167E0,1.0308831E1,1.2984975E1,1.7671956E0,-2.0859033E-1,2.3946089E1,2.5817453E2,4.9153333E0,4E-1,1.0403334E0,8.6734856E1,1E-1,1.692383E1,-3.7424996E-1,9.229917E0,7.5999994E0,1.0600585E0,1.8132502E0,1.1692382E0,4.3420509E-1,2.1410452E2,3.326639E2,4.809083E0,1.76445E1,1.741325E1,1.7651016E1,2.4195107E1,2.2463037E2,2.5994666E2,2E-1,3.4751648E2,1.9434084E1,1.3617419E1,-4.236851E-2,3.8974988E-1,-1.7080119E-1,-5.185001E-1,-2.6822636E-1,5.676424E-2,5.656514E-1,-2.3895372E-1,-2.2629374E-1,6.158782E-1,-5.8067985E-2,1.6780263E0,2.5206474E-3,4.4777054E-1,-2.1845706E-1,1.6449599E-1,-5.6128623E-3,-1.6317727E-1,1.9186373E-1,-9.101284E-2,-2.21383E-2,-1.4509912E-1,1.3563588E0,2.3030587E-1,3.405278E-1,-6.1997436E-2,-1.8266644E-1,-7.350862E-2,4.734672E-1,-4.581641E-2,-7.711058E-2,-2.5208017E-1,2.2977728E-1,-1.6300833E-1,3.3054534E-1,-1.1264609E-1,-2.1240278E-1,5.694187E-3,-2.4735712E-1,7.2721126E-3,-1.7644612E-1,3.6004487E-2],"split_indices":[3,3,2,3,0,2,3,0,0,0,2,0,3,2,2,0,3,2,0,3,0,2,2,0,0,2,3,0,1,0,3,1,2,0,0,1,0,0,0,0,3,3,0,0,0,2,2,3,3,1,3,0,0,0,0,0,0,0,0,0,0,0,0,0,0,0,0,0,0,0,0,0,0,0,0,0,0,0,0,0,0,0,0,0,0,0,0,0,0,0,0,0,0,0,0],"split_type":[0,0,0,0,0,0,0,0,0,0,0,0,0,0,0,0,0,0,0,0,0,0,0,0,0,0,0,0,0,0,0,0,0,0,0,0,0,0,0,0,0,0,0,0,0,0,0,0,0,0,0,0,0,0,0,0,0,0,0,0,0,0,0,0,0,0,0,0,0,0,0,0,0,0,0,0,0,0,0,0,0,0,0,0,0,0,0,0,0,0,0,0,0,0,0],"sum_hessian":[1.712E3,8.22E2,8.9E2,8.02E2,2E1,3.46E2,5.44E2,2.74E2,5.28E2,1E0,1.9E1,3.43E2,3E0,3.06E2,2.38E2,2.05E2,6.9E1,2.23E2,3.05E2,1.1E1,8E0,2.85E2,5.8E1,1E0,2E0,2.33E2,7.3E1,2.6E1,2.12E2,9.8E1,1.07E2,3.2E1,3.7E1,1.33E2,9E1,2.99E2,6E0,9E0,2E0,1E0,7E0,2.3E1,2.62E2,2.5E1,3.3E1,2.08E2,2.5E1,4.9E1,2.4E1,8E0,1.8E1,1.25E2,8.7E1,8.9E1,9E0,9.6E1,1.1E1,1.1E1,2.1E1,2.5E1,1.2E1,1.4E1,1.19E2,8.8E1,2E0,2.68E2,3.1E1,2E0,7E0,1E0,6E0,1.9E1,4E0,1.18E2,1.44E2,2E0,2.3E1,2E0,3.1E1,4.9E1,1.59E2,5E0,2E1,1.2E1,3.7E1,4E0,2E1,5E0,3E0,1.6E1,2E0,1.22E2,3E0,7.9E1,8E0],"tree_param":{"num_deleted":"0","num_feature":"4","num_nodes":"95","size_leaf_vector":"1"}},{"base_weights":[3.3752725E-2,2.6553655E-1,-2.7798083E-1,-1.11761585E-1,4.1150475E-1,-3.169621E-1,5.5613637E-1,-2.6085362E-1,3.202895E-1,8.4860027E-1,1.087209E-1,9.5918395E-2,-3.4891886E-1,2.6596856E0,2.5712526E-1,-1.7871033E-1,-1.1587493E0,2.529771E0,2.1958318E-1,7.240752E-1,2.8713367E0,-6.3987255E-2,9.443657E-1,3.9553165E-1,-3.509354E-1,-1.8605885E-1,-3.9133137E-1,9.955808E-1,1.02440216E-1,-3.0868119E-2,1.207799E0,4.542519E-2,-4.7811848E-1,-1.3372046E0,-2.4446863E-1,2.3074294E-2,1.1153227E0,4.495573E-2,1.0453173E0,1.2301068E0,-8.9363314E-2,2.0534942E0,-1.3250734E-1,4.792416E-1,4.146985E0,2.2392714E-1,3.219688E-1,-5.008562E-1,4.114421E-1,-2.6782987E-1,6.8122745E-1,-4.0163165E-1,3.103652E-1,1.5642919E-1,-1.6739939E-1,2.7595115E-1,4.5760438E-1,1.4461039E-1,-7.726252E-2,-2.1591958E-1,-4.683274E-2,-2.025259E-1,-4.3692324E-1,2.6126683E-1,-2.7196535E-1,-9.804273E-2,2.3029481E-1,6.0950965E-1,-2.2258697E-1,7.342593E-2,5.6173307E-1,9.852534E-1,-6.404456E-2,4.8570372E-2,2.1131327E0,-4.2739487E-1,-2.7884996E-2,7.2289556E-2,6.351168E-1,7.787636E-1,1.6310698E0,1.6838294E-2,2.752379E-1,1.0293571E-1,-1.7120558E-1,1.716724E-1,-1.0643328E-2,-5.99663E-3,-1.5112233E-1,5.2841503E-2,4.9421135E-1,-5.1209796E-2,-1.3002688E-1,2.2082892E-1,-2.7687836E-2,-7.6027505E-2,2.2006306E-1,1.0808666E-1,1.609136E-2],"categories":[],"categories_nodes":[],"categories_segments":[],"categories_sizes":[],"default_left":[0,0,0,0,0,0,0,0,0,0,0,0,0,0,0,0,0,0,0,0,0,0,0,0,0,0,0,0,0,0,0,0,0,0,0,0,0,0,0,0,0,0,0,0,0,0,0,0,0,0,0,0,0,0,0,0,0,0,0,0,0,0,0,0,0,0,0,0,0,0,0,0,0,0,0,0,0,0,0,0,0,0,0,0,0,0,0,0,0,0,0,0,0,0,0,0,0,0,0],"id":4,"left_children":[1,3,5,7,9,11,13,15,17,19,21,23,25,27,29,31,33,35,37,39,-1,41,43,45,47,49,51,-1,-1,53,55,57,59,61,63,-1,-1,65,67,69,71,73,75,77,79,81,-1,83,85,87,89,91,93,-1,95,97,-1,-1,-1,-1,-1,-1,-1,-1,-1,-1,-1,-1,-1,-1,-1,-1,-1,-1,-1,-1,-1,-1,-1,-1,-1,-1,-1,-1,-1,-1,-1,-1,-1,-1,-1,-1,-1,-1,-1,-1,-1,-1,-1],"loss_changes":[1.23846275E2,5.4183266E1,2.394468E1,1.7797775E1,9.374066E1,9.256302E0,2.007262E1,1.4912921E1,1.5242622E1,3.080598E2,6.067595E1,6.966856E0,4.4100266E0,4.976858E0,8.250914E0,1.27051325E1,2.446785E0,8.45582E0,9.90252E0,1.18246475E2,0E0,5.0908512E1,1.0526491E2,3.3648496E0,2.6062944E0,9.827419E0,3.839676E0,0E0,0E0,1.8970323E0,1.6504288E0,1.4542469E1,6.1895866E0,1.21795654E-1,3.743342E0,0E0,0E0,1.5833854E1,2.266264E1,1.1157013E2,4.7178917E1,1.0269498E2,1.7195135E1,2.446603E1,3.8936005E0,2.9742393E0,0E0,1.2566252E0,3.0775928E-1,7.2984943E0,5.565699E0,3.6482239E0,1.4393291E0,0E0,1.7359813E0,3.6923096E-2,0E0,0E0,0E0,0E0,0E0,0E0,0E0,0E0,0E0,0E0,0E0,0E0,0E0,0E0,0E0,0E0,0E0,0E0,0E0,0E0,0E0,0E0,0E0,0E0,0E0,0E0,0E0,0E0,0E0,0E0,0E0,0E0,0E0,0E0,0E0,0E0,0E0,0E0,0E0,0E0,0E0,0E0,0E0],"parents":[2147483647,0,0,1,1,2,2,3,3,4,4,5,5,6,6,7,7,8,8,9,9,10,10,11,11,12,12,13,13,14,14,15,15,16,16,17,17,18,18,19,19,21,21,22,22,23,23,24,24,25,25,26,26,29,29,30,30,31,31,32,32,33,33,34,34,37,37,38,38,39,39,40,40,41,41,42,42,43,43,44,44,45,45,47,47,48,48,49,49,50,50,51,51,52,52,54,54,55,55],"right_children":[2,4,6,8,10,12,14,16,18,20,22,24,26,28,30,32,34,36,38,40,-1,42,44,46,48,50,52,-1,-1,54,56,58,60,62,64,-1,-1,66,68,70,72,74,76,78,80,82,-1,84,86,88,90,92,94,-1,96,98,-1,-1,-1,-1,-1,-1,-1,-1,-1,-1,-1,-1,-1,-1,-1,-1,-1,-1,-1,-1,-1,-1,-1,-1,-1,-1,-1,-1,-1,-1,-1,-1,-1,-1,-1,-1,-1,-1,-1,-1,-1,-1,-1],"split_conditions":[2.3659216E2,9.817188E1,1.8842417E1,1.3617419E1,8.388251E0,1.1966953E1,1.91195E1,8.6734856E1,1.3942417E1,8.223667E0,1.9342417E1,7.936168E0,2.5307248E2,7.0000005E-1,4.1E0,3.421583E0,9.4969635E1,1.3832001E1,4.4999995E0,2.1E0,2.8713367E0,1.0340668E2,5.4E0,4E-1,9.0000004E-1,2.519071E2,1.2E1,9.955808E-1,1.02440216E-1,1.243434E1,1.962575E1,1.4145756E1,2E-1,8.878253E1,-1.1200833E0,2.3074294E-2,1.1153227E0,1.8600748E1,1.25E1,1.5315873E1,1.1298495E1,1.7462784E1,1.1263491E2,2.285283E1,1.692383E1,4.809083E0,3.219688E-1,7.342588E0,1.7369501E1,1.8782204E1,1.1694501E1,1.3896187E1,1.5599999E1,1.5642919E-1,3.4005957E2,1.9434084E1,4.5760438E-1,1.4461039E-1,-7.726252E-2,-2.1591958E-1,-4.683274E-2,-2.025259E-1,-4.3692324E-1,2.6126683E-1,-2.7196535E-1,-9.804273E-2,2.3029481E-1,6.0950965E-1,-2.2258697E-1,7.342593E-2,5.6173307E-1,9.852534E-1,-6.404456E-2,4.8570372E-2,2.1131327E0,-4.2739487E-1,-2.7884996E-2,7.2289556E-2,6.351168E-1,7.787636E-1,1.6310698E0,1.6838294E-2,2.752379E-1,1.0293571E-1,-1.7120558E-1,1.716724E-1,-1.0643328E-2,-5.99663E-3,-1.5112233E-1,5.2841503E-2,4.9421135E-1,-5.1209796E-2,-1.3002688E-1,2.2082892E-1,-2.7687836E-2,-7.6027505E-2,2.2006306E-1,1.0808666E-1,1.609136E-2],"split_indices":[3,3,0,0,0,2,0,3,0,0,0,0,3,1,1,0,3,0,1,1,0,3,1,1,1,3,1,0,0,2,0,2,1,3,0,0,0,0,1,2,2,2,3,0,2,0,0,2,0,2,0,2,1,0,3,0,0,0,0,0,0,0,0,0,0,0,0,0,0,0,0,0,0,0,0,0,0,0,0,0,0,0,0,0,0,0,0,0,0,0,0,0,0,0,0,0,0,0,0],"split_type":[0,0,0,0,0,0,0,0,0,0,0,0,0,0,0,0,0,0,0,0,0,0,0,0,0,0,0,0,0,0,0,0,0,0,0,0,0,0,0,0,0,0,0,0,0,0,0,0,0,0,0,0,0,0,0,0,0,0,0,0,0,0,0,0,0,0,0,0,0,0,0,0,0,0,0,0,0,0,0,0,0,0,0,0,0,0,0,0,0,0,0,0,0,0,0,0,0,0,0],"sum_hessian":[1.712E3,9.82E2,7.3E2,2.74E2,7.08E2,6.98E2,3.2E1,2.04E2,7E1,2.89E2,4.19E2,5E1,6.48E2,3E0,2.9E1,1.88E2,1.6E1,2E0,6.8E1,2.86E2,3E0,3.48E2,7.1E1,3E1,2E1,1.35E2,5.13E2,2E0,1E0,2.3E1,6E0,1.08E2,8E1,1.3E1,3E0,1E0,1E0,5.7E1,1.1E1,1.76E2,1.1E2,1E1,3.38E2,6.3E1,8E0,2.5E1,5E0,1.7E1,3E0,1.24E2,1.1E1,5.06E2,7E0,4E0,1.9E1,2E0,4E0,4.4E1,6.4E1,4.5E1,3.5E1,3E0,1E1,1E0,2E0,3.8E1,1.9E1,7E0,4E0,7E1,1.06E2,3E0,1.07E2,8E0,2E0,9E0,3.29E2,5.6E1,7E0,5E0,3E0,2.1E1,4E0,1E0,1.6E1,2E0,1E0,6.1E1,6.3E1,8E0,3E0,6.2E1,4.44E2,3E0,4E0,1.8E1,1E0,1E0,1E0],"tree_param":{"num_deleted":"0","num_feature":"4","num_nodes":"99","size_leaf_vector":"1"}},{"base_weights":[3.1304814E-2,2.5875863E-1,-1.7882515E-1,1.8267731E-1,3.1556416E0,-2.3108783E-1,1.5249522E-1,-4.4665167E-1,2.607579E-1,8.592674E0,4.491991E-1,-1.9323257E-1,-5.149584E-1,8.092396E-2,1.5227189E0,-1.5535916E-1,-1.1861461E0,-3.2126313E-1,3.4508294E-1,8.700025E-1,-1.6178308E-1,-5.592131E-2,-3.2066083E-1,-5.6580144E-1,-5.1633872E-2,1.3923259E0,3.4199994E-2,1.8583672E0,1.7028446E-1,-2.6861098E-1,1.1964685E-2,9.669326E-1,-1.4154109E0,-1.7617946E-2,-5.486582E-1,1.470659E0,3.2992378E-1,1.13166645E-1,9.308364E-1,2.8481436E-1,-4.1935125E-1,2.42412E-1,-1.6927868E-1,-8.33553E-1,-2.5978488E-1,-4.9290246E-1,-2.6384032E-1,-7.585467E-1,3.5969257E-1,7.8103644E-1,1.2079819E-1,6.547099E-1,-7.378846E-2,1.624044E-1,6.350773E-1,-4.662383E-2,1.8322104E-1,8.807595E-2,3.4704375E-1,-1.3322417E-1,-4.7895864E-1,-5.267925E-2,5.9679866E-1,-2.192824E-1,8.700751E-2,8.140657E-3,1.5886891E-1,3.6908284E-1,-4.4296198E-2,-5.8819057E-4,-1.4360952E-1,3.0998325E-2,5.6899863E-1,3.3261348E-2,-7.7288136E-2,-3.0123672E-1,-8.178102E-2,6.504078E-2,-9.477793E-2,-1.5391897E-1,1.2867999E-1,-6.904702E-2,-2.5738734E-1,1.9766726E-1,-7.766061E-2,7.487905E-3,4.6871282E-2,6.619823E-1,4.936367E-2,-1.8880653E-1,2.0338606E-2],"categories":[],"categories_nodes":[],"categories_segments":[],"categories_sizes":[],"default_left":[0,0,0,0,0,0,0,0,0,0,0,0,0,0,0,0,0,0,0,0,0,0,0,0,0,0,0,0,0,0,0,0,0,0,0,0,0,0,0,0,0,0,0,0,0,0,0,0,0,0,0,0,0,0,0,0,0,0,0,0,0,0,0,0,0,0,0,0,0,0,0,0,0,0,0,0,0,0,0,0,0,0,0,0,0,0,0,0,0,0,0],"id":5,"left_children":[1,3,5,7,9,11,13,15,17,-1,19,21,23,25,27,29,31,33,35,37,39,41,43,45,47,49,51,53,-1,-1,55,57,59,61,63,-1,65,67,-1,-1,69,71,73,75,77,79,-1,81,83,-1,85,87,89,-1,-1,-1,-1,-1,-1,-1,-1,-1,-1,-1,-1,-1,-1,-1,-1,-1,-1,-1,-1,-1,-1,-1,-1,-1,-1,-1,-1,-1,-1,-1,-1,-1,-1,-1,-1,-1,-1],"loss_changes":[8.1918884E1,1.8081165E2,1.5463518E1,3.9574574E1,1.4356727E3,8.174908E0,1.1841148E1,1.8987139E1,3.5202305E1,0E0,5.2828197E0,1.1897753E1,2.0909023E0,7.121429E0,8.6863804E-1,8.059108E0,1.3709232E1,6.273649E0,4.1558884E1,1.992709E1,2.9739287E0,1.116725E1,1.08050995E1,1.4186497E0,3.1805627E0,5.8454423E0,7.687211E0,2.1610641E-1,0E0,0E0,5.5068474E0,4.393983E-2,3.3372955E0,1.3031582E1,8.161637E0,0E0,3.7705444E1,3.095307E0,0E0,0E0,1.9722891E-1,2.0741314E1,5.944003E0,3.2664623E0,8.550253E0,1.483841E0,0E0,1.2646437E-2,1.4660734E0,0E0,6.289743E-3,1.2568556E1,7.7512736E0,0E0,0E0,0E0,0E0,0E0,0E0,0E0,0E0,0E0,0E0,0E0,0E0,0E0,0E0,0E0,0E0,0E0,0E0,0E0,0E0,0E0,0E0,0E0,0E0,0E0,0E0,0E0,0E0,0E0,0E0,0E0,0E0,0E0,0E0,0E0,0E0,0E0,0E0],"parents":[2147483647,0,0,1,1,2,2,3,3,4,4,5,5,6,6,7,7,8,8,10,10,11,11,12,12,13,13,14,14,15,15,16,16,17,17,18,18,19,19,20,20,21,21,22,22,23,23,24,24,25,25,26,26,27,27,30,30,31,31,32,32,33,33,34,34,36,36,37,37,40,40,41,41,42,42,43,43,44,44,45,45,47,47,48,48,50,50,51,51,52,52],"right_children":[2,4,6,8,10,12,14,16,18,-1,20,22,24,26,28,30,32,34,36,38,40,42,44,46,48,50,52,54,-1,-1,56,58,60,62,64,-1,66,68,-1,-1,70,72,74,76,78,80,-1,82,84,-1,86,88,90,-1,-1,-1,-1,-1,-1,-1,-1,-1,-1,-1,-1,-1,-1,-1,-1,-1,-1,-1,-1,-1,-1,-1,-1,-1,-1,-1,-1,-1,-1,-1,-1,-1,-1,-1,-1,-1,-1],"split_conditions":[2.1567303E2,2.13416E2,1.6704918E1,-2.7425E-1,3.340834E-1,1.4286167E1,1.03E1,9.817188E1,4.4372204E1,8.592674E0,1.5124284E1,1.7782688E1,4.2000003E0,1.675492E1,1.0990322E1,-5.153417E0,1.1440978E1,1.370839E1,-1.9925009E-1,2.1449258E2,2.2049167E0,2.5004388E2,2.3065184E2,2.0418695E1,1.6375053E1,6E-1,2.2463037E2,1.7369501E1,1.7028446E-1,-2.6861098E-1,2.3E0,-9.950833E-1,1.3896187E1,1.3556282E1,1.5598666E1,1.470659E0,1.5021105E1,8.707237E0,9.308364E-1,2.8481436E-1,2.1410452E2,2.4860461E2,-3.126334E0,8.223667E0,2.3890446E2,2.0176065E1,-2.6384032E-1,1.4113653E1,2.7663486E2,7.8103644E-1,1.1000001E0,1.2849528E1,2.3999753E2,1.624044E-1,6.350773E-1,-4.662383E-2,1.8322104E-1,8.807595E-2,3.4704375E-1,-1.3322417E-1,-4.7895864E-1,-5.267925E-2,5.9679866E-1,-2.192824E-1,8.700751E-2,8.140657E-3,1.5886891E-1,3.6908284E-1,-4.4296198E-2,-5.8819057E-4,-1.4360952E-1,3.0998325E-2,5.6899863E-1,3.3261348E-2,-7.7288136E-2,-3.0123672E-1,-8.178102E-2,6.504078E-2,-9.477793E-2,-1.5391897E-1,1.2867999E-1,-6.904702E-2,-2.5738734E-1,1.9766726E-1,-7.766061E-2,7.487905E-3,4.6871282E-2,6.619823E-1,4.936367E-2,-1.8880653E-1,2.0338606E-2],"split_indices":[3,3,0,0,0,0,1,3,3,0,2,2,1,0,2,0,2,2,0,3,0,3,3,2,2,1,3,0,0,0,1,0,2,2,0,0,2,2,0,0,3,3,0,0,3,2,0,2,3,0,1,2,3,0,0,0,0,0,0,0,0,0,0,0,0,0,0,0,0,0,0,0,0,0,0,0,0,0,0,0,0,0,0,0,0,0,0,0,0,0,0],"split_type":[0,0,0,0,0,0,0,0,0,0,0,0,0,0,0,0,0,0,0,0,0,0,0,0,0,0,0,0,0,0,0,0,0,0,0,0,0,0,0,0,0,0,0,0,0,0,0,0,0,0,0,0,0,0,0,0,0,0,0,0,0,0,0,0,0,0,0,0,0,0,0,0,0,0,0,0,0,0,0,0,0,0,0,0,0,0,0,0,0,0,0],"sum_hessian":[1.712E3,8.22E2,8.9E2,8.02E2,2E1,7.69E2,1.21E2,8.8E1,7.14E2,1E0,1.9E1,6.8E2,8.9E1,1.16E2,5E0,6.4E1,2.4E1,9E1,6.24E2,1.1E1,8E0,3.28E2,3.52E2,8E1,9E0,3E0,1.13E2,3E0,2E0,1.1E1,5.3E1,2E0,2.2E1,3.9E1,5.1E1,1E0,6.23E2,9E0,2E0,1E0,7E0,9E1,2.38E2,3.6E1,3.16E2,6.7E1,1.3E1,3E0,6E0,1E0,2E0,1.6E1,9.7E1,1E0,2E0,4.2E1,1.1E1,1E0,1E0,4E0,1.8E1,3.7E1,2E0,4.2E1,9E0,2.48E2,3.75E2,1E0,8E0,1E0,6E0,8.4E1,6E0,5.7E1,1.81E2,2.7E1,9E0,3.3E1,2.83E2,6.6E1,1E0,1E0,2E0,4E0,2E0,1E0,1E0,3E0,1.3E1,1.9E1,7.8E1],"tree_param":{"num_deleted":"0","num_feature":"4","num_nodes":"91","size_leaf_vector":"1"}},{"base_weights":[2.9924553E-2,1.9538304E-1,-1.2293994E-1,1.300416E-1,2.6846118E0,3.0343193E-1,-1.4597796E-1,1.9338475E-1,-4.965874E-1,7.303773E0,3.8425136E-1,1.8504557E-1,1.5002273E0,-1.7752497E-1,6.895483E-2,-2.5980715E-2,3.9329356E-1,-5.683172E-1,7.109534E-1,7.13637E-1,-9.762409E-2,4.0690097E-1,-9.043318E-2,1.3804372E-1,5.080618E-1,-1.5185338E-1,-3.6301947E-1,-8.064462E-1,1.4627814E-1,-1.236904E-1,9.803215E-1,9.3284833E-1,5.181525E-2,-5.306795E-2,-8.695925E-1,1.11695364E-1,7.446691E-1,2.4209219E-1,-3.1157058E-1,2.3686135E-1,1.0056792E0,-1.6985847E-1,1.0590038E-1,-4.1506443E-2,-2.1634547E-1,-5.7723135E-1,-2.750454E-1,-3.430795E-1,-3.899654E-1,1.4369671E0,4.395882E-3,-8.984218E-2,5.4707617E-2,1.6936412E-1,1.0936989E0,5.968374E-1,5.6947596E-2,-2.888775E-2,2.7026895E-1,3.3017552E-1,-1.4700833E-1,-3.0874085E-1,-2.9802553E-2,1.6174051E-1,-1.270714E-1,-4.6344787E-2,-1.5656689E-1,2.0368989E-1,1.3268585E-2,4.6636915E-1,3.6470488E-2,-8.505923E-2,9.869071E-2,1.364782E-1,-3.5086755E-2,-8.8388465E-2,-2.090815E-2,-3.2845188E-2,-1.9081157E-1,-1.9033845E-1,-4.918252E-2,-7.023883E-3,-1.9648252E-1,1.3330195E0,3.8980365E-2,-7.706795E-2,1.05148196E-1],"categories":[],"categories_nodes":[],"categories_segments":[],"categories_sizes":[],"default_left":[0,0,0,0,0,0,0,0,0,0,0,0,0,0,0,0,0,0,0,0,0,0,0,0,0,0,0,0,0,0,0,0,0,0,0,0,0,0,0,0,0,0,0,0,0,0,0,0,0,0,0,0,0,0,0,0,0,0,0,0,0,0,0,0,0,0,0,0,0,0,0,0,0,0,0,0,0,0,0,0,0,0,0,0,0,0,0],"id":6,"left_children":[1,3,5,7,9,11,13,15,17,-1,19,21,23,25,27,29,31,33,-1,35,37,39,41,-1,-1,43,45,47,49,51,53,55,57,59,61,63,-1,-1,65,67,69,-1,71,73,75,77,79,81,-1,83,85,-1,-1,-1,-1,-1,-1,-1,-1,-1,-1,-1,-1,-1,-1,-1,-1,-1,-1,-1,-1,-1,-1,-1,-1,-1,-1,-1,-1,-1,-1,-1,-1,-1,-1,-1,-1],"loss_changes":[4.3350464E1,1.3351169E2,8.796375E0,3.1969238E1,1.0370496E3,6.2398653E0,5.748535E0,3.2022972E1,1.6561863E1,0E0,3.244125E0,2.6648045E0,2.496624E-2,3.4591866E0,7.4960566E0,3.443685E1,7.0333725E1,1.1285776E1,0E0,1.2497824E1,1.9932494E0,2.205378E0,1.9281199E0,0E0,0E0,4.616749E0,1.5184488E0,1.6118221E0,1.8489395E1,1.72163E1,3.2295464E1,1.1581496E2,2.9639294E1,1.4654114E1,5.550644E0,2.5163043E0,0E0,0E0,1.8368584E-1,1.6732479E0,2.2373886E0,0E0,1.3963209E0,9.080013E0,4.686386E0,6.1803627E-1,2.4915934E0,5.828174E-1,0E0,3.871768E1,8.409751E0,0E0,0E0,0E0,0E0,0E0,0E0,0E0,0E0,0E0,0E0,0E0,0E0,0E0,0E0,0E0,0E0,0E0,0E0,0E0,0E0,0E0,0E0,0E0,0E0,0E0,0E0,0E0,0E0,0E0,0E0,0E0,0E0,0E0,0E0,0E0,0E0],"parents":[2147483647,0,0,1,1,2,2,3,3,4,4,5,5,6,6,7,7,8,8,10,10,11,11,12,12,13,13,14,14,15,15,16,16,17,17,19,19,20,20,21,21,22,22,25,25,26,26,27,27,28,28,29,29,30,30,31,31,32,32,33,33,34,34,35,35,38,38,39,39,40,40,42,42,43,43,44,44,45,45,46,46,47,47,49,49,50,50],"right_children":[2,4,6,8,10,12,14,16,18,-1,20,22,24,26,28,30,32,34,-1,36,38,40,42,-1,-1,44,46,48,50,52,54,56,58,60,62,64,-1,-1,66,68,70,-1,72,74,76,78,80,82,-1,84,86,-1,-1,-1,-1,-1,-1,-1,-1,-1,-1,-1,-1,-1,-1,-1,-1,-1,-1,-1,-1,-1,-1,-1,-1,-1,-1,-1,-1,-1,-1,-1,-1,-1,-1,-1,-1],"split_conditions":[2.1567303E2,2.13416E2,1.0990322E1,2.0303464E2,3.340834E-1,9.299999E0,1.6704918E1,1.2397658E2,1.3599999E1,7.303773E0,1.5124284E1,8.223667E0,1.7369501E1,1.4286167E1,1.224E1,1.8748665E1,9.009083E0,2E-1,7.109534E-1,2.1449258E2,2.2049167E0,1.4861668E0,1.31674185E1,1.3804372E-1,5.080618E-1,1.6954432E1,2.4315874E2,1.8373667E1,1.2849528E1,1.0000001E0,3.4999998E0,1.6292143E2,2.1829777E1,8.904918E0,1.5642418E1,6.4257503E0,7.446691E-1,2.4209219E-1,2.1325253E1,8.707237E0,5.7778325E0,-1.6985847E-1,1E-1,2.3510204E2,6.1299167E0,1.4571583E1,1.4704915E1,1.1901798E1,-3.899654E-1,2.4244489E2,4E-1,-8.984218E-2,5.4707617E-2,1.6936412E-1,1.0936989E0,5.968374E-1,5.6947596E-2,-2.888775E-2,2.7026895E-1,3.3017552E-1,-1.4700833E-1,-3.0874085E-1,-2.9802553E-2,1.6174051E-1,-1.270714E-1,-4.6344787E-2,-1.5656689E-1,2.0368989E-1,1.3268585E-2,4.6636915E-1,3.6470488E-2,-8.505923E-2,9.869071E-2,1.364782E-1,-3.5086755E-2,-8.8388465E-2,-2.090815E-2,-3.2845188E-2,-1.9081157E-1,-1.9033845E-1,-4.918252E-2,-7.023883E-3,-1.9648252E-1,1.3330195E0,3.8980365E-2,-7.706795E-2,1.05148196E-1],"split_indices":[3,3,2,3,0,1,0,3,1,0,2,0,0,0,2,0,0,1,0,3,0,0,0,0,0,2,3,0,2,1,1,3,2,0,0,0,0,0,2,2,0,0,1,3,0,0,0,2,0,3,1,0,0,0,0,0,0,0,0,0,0,0,0,0,0,0,0,0,0,0,0,0,0,0,0,0,0,0,0,0,0,0,0,0,0,0,0],"split_type":[0,0,0,0,0,0,0,0,0,0,0,0,0,0,0,0,0,0,0,0,0,0,0,0,0,0,0,0,0,0,0,0,0,0,0,0,0,0,0,0,0,0,0,0,0,0,0,0,0,0,0,0,0,0,0,0,0,0,0,0,0,0,0,0,0,0,0,0,0,0,0,0,0,0,0,0,0,0,0,0,0,0,0,0,0,0,0],"sum_hessian":[1.712E3,8.22E2,8.9E2,8.02E2,2E1,4.5E1,8.45E2,7.29E2,7.3E1,1E0,1.9E1,4.2E1,3E0,7.37E2,1.08E2,3.48E2,3.81E2,7.2E1,1E0,1.1E1,8E0,2.3E1,1.9E1,1E0,2E0,6.49E2,8.8E1,8E0,1E2,3.18E2,3E1,1.47E2,2.34E2,2.7E1,4.5E1,9E0,2E0,1E0,7E0,1.9E1,4E0,5E0,1.4E1,2.4E2,4.09E2,2.4E1,6.4E1,5E0,3E0,9E0,9.1E1,2.02E2,1.16E2,2.7E1,3E0,6E1,8.7E1,2E2,3.4E1,7E0,2E1,3.7E1,8E0,5E0,4E0,5E0,2E0,5E0,1.4E1,2E0,2E0,5E0,9E0,3.1E1,2.09E2,2.66E2,1.43E2,3E0,2.1E1,1.4E1,5E1,3E0,2E0,2E0,7E0,5.2E1,3.9E1],"tree_param":{"num_deleted":"0","num_feature":"4","num_nodes":"87","size_leaf_vector":"1"}},{"base_weights":[2.815452E-2,1.6469996E-1,-9.5085874E-2,1.124135E-1,3.9666383E0,-1.2870005E-1,1.5610263E0,2.4778333E-2,5.420303E-1,1.4323488E1,7.361762E-2,-3.3286965E-1,-5.2095126E-2,1.1319652E0,9.987031E-1,-1.3808389E-1,2.3369102E-1,1.1067538E0,-1.2989949E-1,2.3736267E-1,6.208207E0,-2.4071345E-1,2.3475529E-1,-5.750688E-1,-1.4481287E-1,9.65496E-1,-1.1571352E-1,-6.582814E-1,1.595736E0,5.863555E-2,-4.28372E-1,-3.244937E-2,6.0698986E-1,1.4528862E0,1.6399652E-1,-4.3516573E-1,-1.5778067E-2,-1.07344896E-1,-1.22309044E-1,-1.5939693E-1,-1.0291198E0,-4.079254E-2,-3.7912565E-1,3.1660163E-1,2.3450503E0,-4.316773E-3,-3.2475996E-1,4.7954965E-2,-2.9528254E-1,2.046825E0,6.9080055E-2,-4.335583E-2,1.4508688E-1,-2.7191326E-1,-3.20332E-2,1.7552881E-1,-1.4170754E-1,1.3650227E0,1.0914371E-1,3.0093712E-1,1.2988254E0,-3.0417776E-1,2.1082817E-1,7.3761284E-1,-4.3721233E-2,-4.996246E-2,-1.1192059E-2,-9.8683886E-2,1.3748724E0,-3.43388E-1,6.946068E-1,4.7287267E-1,-2.2321796E-2,-2.1941619E-2,-1.381081E-1,1.8475258E-1,-5.239279E-2,1.2623794E0,-6.5745674E-2,1.5606634E-1,-4.9273103E-2,-1.6235611E-1,-1.3300316E-2,2.5192875E-1,8.1347185E-1,7.645474E-2,-7.3234074E-2],"categories":[],"categories_nodes":[],"categories_segments":[],"categories_sizes":[],"default_left":[0,0,0,0,0,0,0,0,0,0,0,0,0,0,0,0,0,0,0,0,0,0,0,0,0,0,0,0,0,0,0,0,0,0,0,0,0,0,0,0,0,0,0,0,0,0,0,0,0,0,0,0,0,0,0,0,0,0,0,0,0,0,0,0,0,0,0,0,0,0,0,0,0,0,0,0,0,0,0,0,0,0,0,0,0,0,0],"id":7,"left_children":[1,3,5,7,9,11,13,15,17,19,21,23,25,27,-1,29,31,33,35,-1,-1,37,-1,39,41,43,45,47,49,51,53,55,57,59,61,-1,63,-1,65,67,69,71,73,75,77,79,81,-1,-1,83,85,-1,-1,-1,-1,-1,-1,-1,-1,-1,-1,-1,-1,-1,-1,-1,-1,-1,-1,-1,-1,-1,-1,-1,-1,-1,-1,-1,-1,-1,-1,-1,-1,-1,-1,-1,-1],"loss_changes":[2.8841879E1,1.6117029E2,5.035854E1,3.021915E1,4.424593E2,1.3808768E1,9.885994E0,2.276029E1,5.1749588E1,2.4225024E2,2.1938262E0,1.0893595E1,4.180268E1,1.4334669E1,0E0,2.1496716E1,2.912922E1,2.3909325E1,9.472144E0,0E0,0E0,5.32943E-2,0E0,1.9653267E1,3.3236759E0,3.327459E1,1.4133866E1,1.2241589E0,8.811153E0,1.949601E1,2.3269266E1,4.7002552E1,1.1532672E2,6.551992E1,1.4039613E1,0E0,1.9331715E1,0E0,1.2586154E-2,4.653459E1,2.196569E1,5.3352757E0,1.010313E0,4.0765543E0,5.824382E1,3.3388866E1,1.2781952E1,0E0,0E0,5.7468414E0,2.9493886E-1,0E0,0E0,0E0,0E0,0E0,0E0,0E0,0E0,0E0,0E0,0E0,0E0,0E0,0E0,0E0,0E0,0E0,0E0,0E0,0E0,0E0,0E0,0E0,0E0,0E0,0E0,0E0,0E0,0E0,0E0,0E0,0E0,0E0,0E0,0E0,0E0],"parents":[2147483647,0,0,1,1,2,2,3,3,4,4,5,5,6,6,7,7,8,8,9,9,10,10,11,11,12,12,13,13,15,15,16,16,17,17,18,18,21,21,23,23,24,24,25,25,26,26,27,27,28,28,29,29,30,30,31,31,32,32,33,33,34,34,36,36,38,38,39,39,40,40,41,41,42,42,43,43,44,44,45,45,46,46,49,49,50,50],"right_children":[2,4,6,8,10,12,14,16,18,20,22,24,26,28,-1,30,32,34,36,-1,-1,38,-1,40,42,44,46,48,50,52,54,56,58,60,62,-1,64,-1,66,68,70,72,74,76,78,80,82,-1,-1,84,86,-1,-1,-1,-1,-1,-1,-1,-1,-1,-1,-1,-1,-1,-1,-1,-1,-1,-1,-1,-1,-1,-1,-1,-1,-1,-1,-1,-1,-1,-1,-1,-1,-1,-1,-1,-1],"split_conditions":[1.6595179E1,1.6516901E1,2.0784082E1,1.5496736E1,3.340834E-1,2.3986669E0,5.4E0,2E-1,2.280505E2,-3.4638336E0,1.8373667E1,2.3359337E2,2.9424171E0,2.1134085E1,9.987031E-1,1.3556282E1,1.3556282E1,1.5259082E1,2.3065184E2,2.3736267E-1,6.208207E0,1.1352834E1,2.3475529E-1,1.2683972E2,2.2553936E1,2.8486671E0,1.7E0,1E-1,1.9105634E2,1.4494502E1,2.0028748E2,1.1440978E1,1.3779114E1,1.3832001E1,1.6623667E1,-4.3516573E-1,2.3510204E2,-1.07344896E-1,2.2871727E2,1.2397658E2,3.0827856E1,2.3510204E2,-1.5242499E0,2.4149667E2,2.5004388E2,1.905551E2,2.2346113E1,4.7954965E-2,-2.9528254E-1,1.7974781E1,2.1777832E1,-4.335583E-2,1.4508688E-1,-2.7191326E-1,-3.20332E-2,1.7552881E-1,-1.4170754E-1,1.3650227E0,1.0914371E-1,3.0093712E-1,1.2988254E0,-3.0417776E-1,2.1082817E-1,7.3761284E-1,-4.3721233E-2,-4.996246E-2,-1.1192059E-2,-9.8683886E-2,1.3748724E0,-3.43388E-1,6.946068E-1,4.7287267E-1,-2.2321796E-2,-2.1941619E-2,-1.381081E-1,1.8475258E-1,-5.239279E-2,1.2623794E0,-6.5745674E-2,1.5606634E-1,-4.9273103E-2,-1.6235611E-1,-1.3300316E-2,2.5192875E-1,8.1347185E-1,7.645474E-2,-7.3234074E-2],"split_indices":[2,2,0,2,0,0,1,1,3,0,0,3,0,0,0,2,2,0,3,0,0,0,0,3,2,0,1,1,3,0,3,2,2,0,0,0,3,0,3,3,2,3,0,3,3,3,2,0,0,2,0,0,0,0,0,0,0,0,0,0,0,0,0,0,0,0,0,0,0,0,0,0,0,0,0,0,0,0,0,0,0,0,0,0,0,0,0],"split_type":[0,0,0,0,0,0,0,0,0,0,0,0,0,0,0,0,0,0,0,0,0,0,0,0,0,0,0,0,0,0,0,0,0,0,0,0,0,0,0,0,0,0,0,0,0,0,0,0,0,0,0,0,0,0,0,0,0,0,0,0,0,0,0,0,0,0,0,0,0,0,0,0,0,0,0,0,0,0,0,0,0,0,0,0,0,0,0],"sum_hessian":[1.712E3,8.12E2,9E2,8.02E2,1E1,8.83E2,1.7E1,6.67E2,1.35E2,2E0,8E0,2.4E2,6.43E2,1.5E1,2E0,3.75E2,2.92E2,7.3E1,6.2E1,1E0,1E0,6E0,2E0,1.04E2,1.36E2,3.7E1,6.06E2,3E0,1.2E1,2.24E2,1.51E2,1.71E2,1.21E2,5.3E1,2E1,4E0,5.8E1,2E0,4E0,5.5E1,4.9E1,9.5E1,4.1E1,2.6E1,1.1E1,3.96E2,2.1E2,1E0,2E0,9E0,3E0,1.52E2,7.2E1,6E1,9.1E1,7.1E1,1E2,6E0,1.15E2,4.7E1,6E0,6E0,1.4E1,2E0,5.6E1,2E0,2E0,5.4E1,1E0,4.8E1,1E0,1E0,9.4E1,9E0,3.2E1,1.6E1,1E1,6E0,5E0,9.2E1,3.04E2,1.18E2,9.2E1,4E0,5E0,2E0,1E0],"tree_param":{"num_deleted":"0","num_feature":"4","num_nodes":"87","size_leaf_vector":"1"}},{"base_weights":[2.8219996E-2,2.2624847E-3,3.8556382E-1,1.1072457E-1,-9.0473965E-2,1.7963074E-1,1.7602046E0,6.2167056E-2,3.634639E0,-3.9132968E-1,-1.8691292E-2,8.7408006E-2,1.1228869E0,2.2891345E0,5.8528715E-1,-3.387101E-2,3.2856205E-1,5.276976E0,1.2961659E-1,-1.5312053E-1,-1.3840454E0,3.004829E0,-5.8158625E-2,3.7570447E-2,1.1993605E0,1.16608225E-1,7.05475E-1,2.4168344E0,1.7097545E-1,9.179735E-2,2.4272484E-1,2.75218E-1,-1.8961933E-1,1.2349799E0,-9.966876E-2,2.0175828E-1,-2.231323E-2,-2.3664962E-1,2.0659652E0,-6.609591E-1,-1.066555E0,4.2016215E0,4.5843273E-1,6.024546E-1,-9.125159E-2,4.4093895E-1,-1.1350094E-1,5.274524E-1,-7.156227E-2,-2.8461412E-1,4.494504E-1,1.394501E0,8.8674027E-1,7.1814895E-2,-3.0506087E-2,-2.7810823E-2,1.8161583E-1,-9.146544E-2,1.1240993E-1,2.4187067E0,2.6190847E-1,-1.7837933E-1,4.137143E-2,-5.7771225E-2,1.7542341E-1,-2.3395829E-1,-1.3732129E-2,9.976241E-1,-4.4577414E-1,-9.2850104E-2,-4.6518746E-1,2.1020609E-1,1.4285014E0,5.904157E-1,-2.102374E-1,6.489924E-1,-2.9815114E-1,-3.5637593E-1,-2.3284126E-2,5.691838E-1,-6.9246024E-2,-1.1756607E-1,1.5448745E-1,4.8434576E-1,7.718425E-2],"categories":[],"categories_nodes":[],"categories_segments":[],"categories_sizes":[],"default_left":[0,0,0,0,0,0,0,0,0,0,0,0,0,0,0,0,0,0,0,0,0,0,0,0,0,0,0,0,0,0,0,0,0,0,0,0,0,0,0,0,0,0,0,0,0,0,0,0,0,0,0,0,0,0,0,0,0,0,0,0,0,0,0,0,0,0,0,0,0,0,0,0,0,0,0,0,0,0,0,0,0,0,0,0,0],"id":8,"left_children":[1,3,5,7,9,11,13,15,17,19,21,23,25,27,29,31,33,-1,35,37,39,41,43,45,47,49,-1,51,-1,53,-1,55,57,59,61,-1,63,65,67,-1,69,71,73,75,77,79,81,-1,-1,-1,-1,83,-1,-1,-1,-1,-1,-1,-1,-1,-1,-1,-1,-1,-1,-1,-1,-1,-1,-1,-1,-1,-1,-1,-1,-1,-1,-1,-1,-1,-1,-1,-1,-1,-1],"loss_changes":[1.5888499E1,1.608332E1,3.252156E1,1.2588397E2,1.8608635E1,8.774796E0,7.9819336E0,1.8636326E1,4.868557E2,3.9042747E1,8.334796E1,5.1641374E0,1.0853486E1,8.1803894E-1,5.883732E-1,2.585528E1,7.503722E1,0E0,7.5736547E-1,2.5512264E1,5.9725E0,2.550142E1,1.5117652E1,5.5953536E0,3.6334753E0,1.0252168E1,0E0,8.3716583E-1,0E0,1.10008635E-1,0E0,2.1921745E1,2.333584E1,1.4617453E2,1.5602825E1,0E0,9.394542E-1,1.3547158E1,2.7308313E1,0E0,8.6817665E0,8.427742E0,8.379144E0,8.437202E1,9.734015E0,2.4895676E1,1.1923737E1,0E0,0E0,0E0,0E0,8.3547974E-1,0E0,0E0,0E0,0E0,0E0,0E0,0E0,0E0,0E0,0E0,0E0,0E0,0E0,0E0,0E0,0E0,0E0,0E0,0E0,0E0,0E0,0E0,0E0,0E0,0E0,0E0,0E0,0E0,0E0,0E0,0E0,0E0,0E0],"parents":[2147483647,0,0,1,1,2,2,3,3,4,4,5,5,6,6,7,7,8,8,9,9,10,10,11,11,12,12,13,13,14,14,15,15,16,16,18,18,19,19,20,20,21,21,22,22,23,23,24,24,25,25,27,27,29,29,31,31,32,32,33,33,34,34,36,36,37,37,38,38,40,40,41,41,42,42,43,43,44,44,45,45,46,46,51,51],"right_children":[2,4,6,8,10,12,14,16,18,20,22,24,26,28,30,32,34,-1,36,38,40,42,44,46,48,50,-1,52,-1,54,-1,56,58,60,62,-1,64,66,68,-1,70,72,74,76,78,80,82,-1,-1,-1,-1,84,-1,-1,-1,-1,-1,-1,-1,-1,-1,-1,-1,-1,-1,-1,-1,-1,-1,-1,-1,-1,-1,-1,-1,-1,-1,-1,-1,-1,-1,-1,-1,-1,-1],"split_conditions":[1.9204914E1,1.6595179E1,5.2E0,1.6516901E1,1.5307991E2,2.285283E1,1.9931773E2,1.5021105E1,2.1410452E2,1.2683972E2,1.565914E2,2.4195107E1,1E-1,2.1134085E1,1.962575E1,3.0340834E0,1.8212596E2,5.276976E0,-3.4638336E0,1.2397658E2,1.3285866E2,3.7999997E0,1.7258728E2,1.4357127E2,2.5420181E1,1.4618837E1,7.05475E-1,1.57908325E1,1.7097545E-1,1.9434084E1,2.4272484E-1,-8.888333E-1,1.7369501E1,1.5124284E1,1.54800005E1,2.0175828E-1,1.8373667E1,1.8030575E1,5.5000005E0,-6.609591E-1,6.886167E0,3.348667E0,3.340834E-1,3.1999998E0,1.748402E2,1.9690336E1,3E-1,5.274524E-1,-7.156227E-2,-2.8461412E-1,4.494504E-1,1.5530151E1,8.8674027E-1,7.1814895E-2,-3.0506087E-2,-2.7810823E-2,1.8161583E-1,-9.146544E-2,1.1240993E-1,2.4187067E0,2.6190847E-1,-1.7837933E-1,4.137143E-2,-5.7771225E-2,1.7542341E-1,-2.3395829E-1,-1.3732129E-2,9.976241E-1,-4.4577414E-1,-9.2850104E-2,-4.6518746E-1,2.1020609E-1,1.4285014E0,5.904157E-1,-2.102374E-1,6.489924E-1,-2.9815114E-1,-3.5637593E-1,-2.3284126E-2,5.691838E-1,-6.9246024E-2,-1.1756607E-1,1.5448745E-1,4.8434576E-1,7.718425E-2],"split_indices":[0,2,1,2,3,0,3,2,3,3,3,2,1,0,0,0,3,0,0,3,3,1,3,3,2,2,0,2,0,0,0,0,0,2,2,0,0,2,1,0,0,0,0,1,3,0,1,0,0,0,0,2,0,0,0,0,0,0,0,0,0,0,0,0,0,0,0,0,0,0,0,0,0,0,0,0,0,0,0,0,0,0,0,0,0],"split_type":[0,0,0,0,0,0,0,0,0,0,0,0,0,0,0,0,0,0,0,0,0,0,0,0,0,0,0,0,0,0,0,0,0,0,0,0,0,0,0,0,0,0,0,0,0,0,0,0,0,0,0,0,0,0,0,0,0,0,0,0,0,0,0,0,0,0,0,0,0,0,0,0,0,0,0,0,0,0,0,0,0,0,0,0,0],"sum_hessian":[1.712E3,1.597E3,1.15E2,7.36E2,8.61E2,1.01E2,1.4E1,7.27E2,9E0,1.65E2,6.96E2,9.3E1,8E0,9E0,5E0,5.35E2,1.92E2,1E0,8E0,1.34E2,3.1E1,8E0,6.88E2,9E1,3E0,5E0,3E0,8E0,1E0,2E0,3E0,1.79E2,3.56E2,6.1E1,1.31E2,1E0,7E0,1.3E2,4E0,7E0,2.4E1,5E0,3E0,3.2E1,6.56E2,2.4E1,6.6E1,2E0,1E0,3E0,2E0,4E0,4E0,1E0,1E0,8.5E1,9.4E1,2.96E2,6E1,2E0,5.9E1,4.2E1,8.9E1,6E0,1E0,3.3E1,9.7E1,3E0,1E0,1E1,1.4E1,1E0,4E0,1E0,2E0,1.6E1,1.6E1,7E0,6.49E2,7E0,1.7E1,4.6E1,2E1,3E0,1E0],"tree_param":{"num_deleted":"0","num_feature":"4","num_nodes":"85","size_leaf_vector":"1"}},{"base_weights":[2.743427E-2,5.9854247E-2,-2.1401407E-1,4.859769E-2,1.2600304E0,-6.9328374E-1,-9.943509E-2,1.773772E-1,-6.167554E-3,-2.1996206E-1,2.1066885E0,-1.3894157E-1,-1.4024947E0,2.2512882E0,-1.5686385E-1,7.810454E-2,8.9841515E-1,-3.717671E-2,4.4309986E-1,2.5056317E-1,-5.980387E-1,3.7147486E0,6.835339E-1,-6.0098326E-1,9.4249916E-1,-5.017378E-1,-6.288168E-1,8.364243E-1,9.613656E-2,-1.8972436E-1,5.9786505E-1,2.5189576E-1,-1.5000854E-1,1.3421818E0,-3.448571E-1,3.568737E-2,-3.5245752E-1,2.8498347E0,7.470465E-2,-1.9962126E-2,-2.1428345E-1,1.313145E0,2.591317E-1,2.0434744E0,-5.07305E-1,-7.896542E-1,3.9828196E-1,8.446419E-2,-8.6719906E-1,-6.5206003E-1,-9.224136E-2,-2.0685071E-1,8.1392395E-1,1.3893892E-2,7.8063107E-1,-3.2032944E-2,-2.0016927E-1,5.22374E-1,7.977817E-2,-2.2442193E-1,-2.0532537E-2,7.196738E-2,-1.8700818E-2,-1.3343962E-1,2.4215864E-1,-2.2764108E-1,1.1967825E0,-1.1259125E-1,3.1965876E-1,8.0198973E-1,1.1757381E-1,-3.743797E-2,-1.7796338E-1,-2.66219E-1,1.307951E-1,2.3837115E-1,-1.1858753E-1,-3.5762748E-1,-7.5972065E-2,-2.5621557E-1,-9.851981E-2,1.2168254E-1,-3.97871E-2,1.98505E-2,-2.3579189E-1],"categories":[],"categories_nodes":[],"categories_segments":[],"categories_sizes":[],"default_left":[0,0,0,0,0,0,0,0,0,0,0,0,0,0,0,0,0,0,0,0,0,0,0,0,0,0,0,0,0,0,0,0,0,0,0,0,0,0,0,0,0,0,0,0,0,0,0,0,0,0,0,0,0,0,0,0,0,0,0,0,0,0,0,0,0,0,0,0,0,0,0,0,0,0,0,0,0,0,0,0,0,0,0,0,0],"id":9,"left_children":[1,3,5,7,9,11,13,15,17,19,21,23,25,27,29,31,33,35,37,-1,39,41,43,45,-1,-1,47,-1,-1,49,51,53,55,57,59,61,63,65,67,-1,-1,-1,-1,69,71,73,75,-1,77,79,81,83,-1,-1,-1,-1,-1,-1,-1,-1,-1,-1,-1,-1,-1,-1,-1,-1,-1,-1,-1,-1,-1,-1,-1,-1,-1,-1,-1,-1,-1,-1,-1,-1,-1],"loss_changes":[1.3421742E1,2.0352148E1,1.1078652E1,1.056595E1,1.800606E1,1.513781E1,2.2628E1,3.19258E1,1.4672308E1,2.893105E0,1.8057503E1,3.6750946E1,2.4990425E0,3.2523727E0,4.1311536E0,1.5657542E1,3.0255901E1,2.2640633E1,6.0077923E1,0E0,2.6137698E-1,3.7731018E0,1.0753486E1,4.273684E0,0E0,0E0,1.5462458E0,0E0,0E0,6.9707513E0,1.2476228E1,1.08107834E2,3.7524164E0,1.6716759E1,1.6206268E0,1.6048382E1,2.0169529E1,4.0033516E1,2.7152683E1,0E0,0E0,0E0,0E0,2.0728827E0,5.741167E-2,2.5432339E0,1.5720236E0,0E0,6.954677E-1,1.484704E0,2.667354E0,1.000675E0,0E0,0E0,0E0,0E0,0E0,0E0,0E0,0E0,0E0,0E0,0E0,0E0,0E0,0E0,0E0,0E0,0E0,0E0,0E0,0E0,0E0,0E0,0E0,0E0,0E0,0E0,0E0,0E0,0E0,0E0,0E0,0E0,0E0],"parents":[2147483647,0,0,1,1,2,2,3,3,4,4,5,5,6,6,7,7,8,8,9,9,10,10,11,11,12,12,13,13,14,14,15,15,16,16,17,17,18,18,20,20,21,21,22,22,23,23,26,26,29,29,30,30,31,31,32,32,33,33,34,34,35,35,36,36,37,37,38,38,43,43,44,44,45,45,46,46,48,48,49,49,50,50,51,51],"right_children":[2,4,6,8,10,12,14,16,18,20,22,24,26,28,30,32,34,36,38,-1,40,42,44,46,-1,-1,48,-1,-1,50,52,54,56,58,60,62,64,66,68,-1,-1,-1,-1,70,72,74,76,-1,78,80,82,84,-1,-1,-1,-1,-1,-1,-1,-1,-1,-1,-1,-1,-1,-1,-1,-1,-1,-1,-1,-1,-1,-1,-1,-1,-1,-1,-1,-1,-1,-1,-1,-1,-1],"split_conditions":[2.4195107E1,2.3946089E1,1.886358E2,3.0340834E0,1.7053773E2,1.565914E2,1.9105634E2,2.3090837E0,8.9E0,9.692418E0,2.3510204E2,1.4608827E2,2.8835976E1,2E-1,8.9E0,1.6954432E1,2.5004388E2,2.1000001E0,9.599999E0,2.5056317E-1,1.2056998E1,1.3832001E1,1E-1,1.4494502E1,9.4249916E-1,-5.017378E-1,3E-1,8.364243E-1,9.613656E-2,2.1957893E2,3.0244286E1,1.629174E1,6.7E0,1.9576189E1,1.6516901E1,9.07575E0,1.9204914E1,1.2181625E1,1.6023666E1,-1.9962126E-2,-2.1428345E-1,1.313145E0,2.591317E-1,7.12575E0,4.1949996E-1,1.3285866E2,4.8999996E0,8.446419E-2,1.7653183E2,2.8694056E1,2.2463037E2,1.4286167E1,8.1392395E-1,1.3893892E-2,7.8063107E-1,-3.2032944E-2,-2.0016927E-1,5.22374E-1,7.977817E-2,-2.2442193E-1,-2.0532537E-2,7.196738E-2,-1.8700818E-2,-1.3343962E-1,2.4215864E-1,-2.2764108E-1,1.1967825E0,-1.1259125E-1,3.1965876E-1,8.0198973E-1,1.1757381E-1,-3.743797E-2,-1.7796338E-1,-2.66219E-1,1.307951E-1,2.3837115E-1,-1.1858753E-1,-3.5762748E-1,-7.5972065E-2,-2.5621557E-1,-9.851981E-2,1.2168254E-1,-3.97871E-2,1.98505E-2,-2.3579189E-1],"split_indices":[2,2,3,0,3,3,3,0,1,0,3,3,2,1,1,2,3,1,1,0,0,0,1,0,0,0,1,0,0,3,2,2,1,2,2,0,0,2,0,0,0,0,0,0,0,3,1,0,3,2,3,0,0,0,0,0,0,0,0,0,0,0,0,0,0,0,0,0,0,0,0,0,0,0,0,0,0,0,0,0,0,0,0,0,0],"split_type":[0,0,0,0,0,0,0,0,0,0,0,0,0,0,0,0,0,0,0,0,0,0,0,0,0,0,0,0,0,0,0,0,0,0,0,0,0,0,0,0,0,0,0,0,0,0,0,0,0,0,0,0,0,0,0,0,0,0,0,0,0,0,0,0,0,0,0,0,0,0,0,0,0,0,0,0,0,0,0,0,0,0,0,0,0],"sum_hessian":[1.712E3,1.51E3,2.02E2,1.497E3,1.3E1,3.8E1,1.64E2,4.46E2,1.051E3,5E0,8E0,2.2E1,1.6E1,3E0,1.61E2,3.93E2,5.3E1,9.84E2,6.7E1,1E0,4E0,3E0,5E0,2E1,2E0,1.1E1,5E0,2E0,1E0,1.55E2,6E0,2.23E2,1.7E2,3.9E1,1.4E1,8E2,1.84E2,8E0,5.9E1,1E0,3E0,2E0,1E0,2E0,3E0,1.7E1,3E0,1E0,4E0,2.6E1,1.29E2,5E0,1E0,2.06E2,1.7E1,1.58E2,1.2E1,2.8E1,1.1E1,5E0,9E0,2.59E2,5.41E2,1.71E2,1.3E1,2E0,6E0,4.1E1,1.8E1,1E0,1E0,1E0,2E0,1.6E1,1E0,2E0,1E0,2E0,2E0,1.5E1,1.1E1,9E0,1.2E2,4E0,1E0],"tree_param":{"num_deleted":"0","num_feature":"4","num_nodes":"85","size_leaf_vector":"1"}},{"base_weights":[2.2638975E-2,9.943802E-3,5.154528E-1,7.8767665E-2,-5.0685026E-2,5.472231E-2,9.95517E-1,4.0929683E-2,3.7392056E0,-3.6879605E-1,-8.987286E-3,-3.2309988E-1,8.035264E-1,1.139102E0,-2.8142732E-1,-6.0436755E-2,1.6068907E-1,4.368335E0,1.13059305E-1,-5.219009E-1,8.1495404E-2,4.2329141E-1,-4.9801126E-2,-1.7574519E-1,-2.163683E-1,9.961908E-1,1.503555E-1,2.7464175E-1,1.4089459E0,-2.0671688E-1,2.1362768E-1,3.7274408E-1,-8.153335E-2,-1.06651604E-1,1.3246733E-1,-1.1334368E0,-3.429171E-1,5.056375E-1,-4.5020804E-2,1.3660957E0,-1.5662025E-1,-4.5157108E-1,-2.6129173E-2,-3.9084005E-1,2.465746E-1,3.518459E-1,1.2304018E0,1.0946889E-1,-4.1808918E-2,-8.295759E-2,1.4225425E-1,1.4918756E0,3.718958E-2,3.4072695E-3,-1.9218567E-1,2.3963042E-1,-6.0707233E-3,3.6588326E-2,2.6290646E-1,-1.650511E-1,6.229278E-2,-6.1936133E-2,-9.026286E-3,-4.354029E-1,-2.4057971E-2,1.5719679E-1,-1.3410474E-1,-4.569465E-2,6.462951E-2,9.304256E-1,-3.397071E-2,-3.853248E-1,5.3907253E-2,-1.8953104E-1,1.4645754E-1,8.650345E-3,-4.698196E-2,6.142607E-2,-1.7707805E-1,8.538366E-4,1.8322328E-1,-8.585308E-2,2.4418373E-1,5.3953674E-2,4.561916E-1,-7.3873047E-3,-2.994361E-2,2.3192735E-1,5.106241E-1],"categories":[],"categories_nodes":[],"categories_segments":[],"categories_sizes":[],"default_left":[0,0,0,0,0,0,0,0,0,0,0,0,0,0,0,0,0,0,0,0,0,0,0,0,0,0,0,0,0,0,0,0,0,0,0,0,0,0,0,0,0,0,0,0,0,0,0,0,0,0,0,0,0,0,0,0,0,0,0,0,0,0,0,0,0,0,0,0,0,0,0,0,0,0,0,0,0,0,0,0,0,0,0,0,0,0,0,0,0],"id":10,"left_children":[1,3,5,7,9,11,13,15,17,19,21,23,25,27,-1,29,31,-1,33,35,37,39,41,43,-1,45,47,49,51,53,55,57,59,61,-1,63,65,-1,67,69,71,73,75,77,79,81,83,-1,-1,85,-1,87,-1,-1,-1,-1,-1,-1,-1,-1,-1,-1,-1,-1,-1,-1,-1,-1,-1,-1,-1,-1,-1,-1,-1,-1,-1,-1,-1,-1,-1,-1,-1,-1,-1,-1,-1,-1,-1],"loss_changes":[1.0712013E1,6.9765906E0,9.456273E0,1.0829526E2,1.1788836E1,6.7666597E0,6.89896E0,9.430027E0,3.1228836E2,7.1435385E0,1.3906084E1,8.119036E-1,8.5695934E-1,4.278429E0,0E0,1.6922129E1,1.8316147E1,0E0,5.523157E-1,8.039364E0,5.5549183E0,3.7392494E1,6.835889E0,1.2772758E0,0E0,4.7256422E-1,2.373224E-1,4.674671E-1,1.4135056E0,2.6028582E1,2.0132076E1,2.3889553E1,2.2745834E1,3.199455E-2,0E0,5.5757675E0,5.7391043E0,0E0,7.59388E-1,6.709625E1,1.6540274E1,7.082202E0,4.8883157E0,1.1898177E0,4.420543E-1,1.1174232E0,9.461603E-1,0E0,0E0,4.9171597E-4,0E0,7.994232E-1,0E0,0E0,0E0,0E0,0E0,0E0,0E0,0E0,0E0,0E0,0E0,0E0,0E0,0E0,0E0,0E0,0E0,0E0,0E0,0E0,0E0,0E0,0E0,0E0,0E0,0E0,0E0,0E0,0E0,0E0,0E0,0E0,0E0,0E0,0E0,0E0,0E0],"parents":[2147483647,0,0,1,1,2,2,3,3,4,4,5,5,6,6,7,7,8,8,9,9,10,10,11,11,12,12,13,13,15,15,16,16,18,18,19,19,20,20,21,21,22,22,23,23,25,25,26,26,27,27,28,28,29,29,30,30,31,31,32,32,33,33,35,35,36,36,38,38,39,39,40,40,41,41,42,42,43,43,44,44,45,45,46,46,49,49,51,51],"right_children":[2,4,6,8,10,12,14,16,18,20,22,24,26,28,-1,30,32,-1,34,36,38,40,42,44,-1,46,48,50,52,54,56,58,60,62,-1,64,66,-1,68,70,72,74,76,78,80,82,84,-1,-1,86,-1,88,-1,-1,-1,-1,-1,-1,-1,-1,-1,-1,-1,-1,-1,-1,-1,-1,-1,-1,-1,-1,-1,-1,-1,-1,-1,-1,-1,-1,-1,-1,-1,-1,-1,-1,-1,-1,-1],"split_conditions":[2.0944498E1,1.6575644E1,1E-1,1.6516901E1,1.7283749E1,1.6375053E1,1.8888851E1,2E-1,3.340834E-1,2.8083517E2,1.7709658E1,2.285283E1,1.9105634E2,1.2758432E1,-2.8142732E-1,1.3617419E1,1.0902833E1,4.368335E0,1.8240332E1,1.6746773E1,2.878099E2,1E-1,1.8030575E1,1.9435817E2,-2.163683E-1,1.7974781E1,2.1777832E1,2.1134085E1,2.1878435E2,6.7236667E0,1.4357127E2,5.502834E0,1.5067417E1,1.1352834E1,1.3246733E-1,1.5929917E1,1.678156E1,5.056375E-1,3.3545114E2,2.0586272E2,1.5894662E2,2.3000002E0,2.4195107E1,1.3009903E1,1.4565548E1,2.2373667E1,2.1134085E1,1.0946889E-1,-4.1808918E-2,6E-1,1.4225425E-1,1.081073E2,3.718958E-2,3.4072695E-3,-1.9218567E-1,2.3963042E-1,-6.0707233E-3,3.6588326E-2,2.6290646E-1,-1.650511E-1,6.229278E-2,-6.1936133E-2,-9.026286E-3,-4.354029E-1,-2.4057971E-2,1.5719679E-1,-1.3410474E-1,-4.569465E-2,6.462951E-2,9.304256E-1,-3.397071E-2,-3.853248E-1,5.3907253E-2,-1.8953104E-1,1.4645754E-1,8.650345E-3,-4.698196E-2,6.142607E-2,-1.7707805E-1,8.538366E-4,1.8322328E-1,-8.585308E-2,2.4418373E-1,5.3953674E-2,4.561916E-1,-7.3873047E-3,-2.994361E-2,2.3192735E-1,5.106241E-1],"split_indices":[0,2,1,2,2,2,2,1,0,3,2,0,3,2,0,0,0,0,0,2,3,1,2,3,0,2,0,0,3,0,3,0,0,0,0,0,2,0,3,3,3,1,2,2,2,0,0,0,0,1,0,3,0,0,0,0,0,0,0,0,0,0,0,0,0,0,0,0,0,0,0,0,0,0,0,0,0,0,0,0,0,0,0,0,0,0,0,0,0],"split_type":[0,0,0,0,0,0,0,0,0,0,0,0,0,0,0,0,0,0,0,0,0,0,0,0,0,0,0,0,0,0,0,0,0,0,0,0,0,0,0,0,0,0,0,0,0,0,0,0,0,0,0,0,0,0,0,0,0,0,0,0,0,0,0,0,0,0,0,0,0,0,0,0,0,0,0,0,0,0,0,0,0,0,0,0,0,0,0,0,0],"sum_hessian":[1.712E3,1.67E3,4.2E1,7.82E2,8.88E2,2.2E1,2E1,7.75E2,7E0,1.02E2,7.86E2,1.5E1,7E0,1.9E1,1E0,4.2E2,3.55E2,1E0,6E0,7.6E1,2.6E1,6.7E1,7.19E2,1.2E1,3E0,5E0,2E0,5E0,1.4E1,2.74E2,1.46E2,1.89E2,1.66E2,4E0,2E0,1.6E1,6E1,1E0,2.5E1,2.5E1,4.2E1,3.9E1,6.8E2,8E0,4E0,2E0,3E0,1E0,1E0,2E0,3E0,1.3E1,1E0,1.83E2,9.1E1,4.1E1,1.05E2,1.27E2,6.2E1,6.3E1,1.03E2,1E0,3E0,1.2E1,4E0,6E0,5.4E1,1.8E1,7E0,1.1E1,1.4E1,9E0,3.3E1,3.3E1,6E0,4.79E2,2.01E2,2E0,6E0,3E0,1E0,1E0,1E0,1E0,2E0,1E0,1E0,4E0,9E0],"tree_param":{"num_deleted":"0","num_feature":"4","num_nodes":"89","size_leaf_vector":"1"}},{"base_weights":[1.9603638E-2,-1.7258099E-1,4.2422175E-2,5.94606E-4,-2.833563E-1,8.9570284E-2,-8.988498E-2,-8.4041625E-2,1.1515285E0,-4.4397414E-1,-7.85231E-2,-2.7295694E-1,1.11952655E-1,-2.537294E-1,-2.9800236E-2,-6.4757127E-1,1.8885116E-3,1.9176579E-1,5.1823455E-1,-1.2586664E-1,-6.2834865E-1,-4.0856254E-1,2.6785883E-1,1.620014E0,-3.57425E-1,9.567182E-1,7.976394E-2,-3.0111778E-1,6.015297E-2,3.6541444E-1,-5.9762944E-2,-8.987362E-2,-2.3149133E-1,1.9887963E-1,-3.2365718E-1,1.2014344E-1,-3.3848837E-2,-2.4840754E-1,3.894703E-1,-3.3150253E-1,-5.2575135E-1,2.2690545E-1,-6.546247E-1,1.0263214E0,-6.0696625E-3,7.601746E-1,-3.1168235E-2,4.842168E-1,-4.3695766E-1,3.1870568E-1,4.4126697E0,-5.739276E-1,9.331682E-2,3.5847363E-1,-3.1935316E-1,-1.197183E-1,1.7541857E-1,-1.3077846E-2,8.7152386E-1,-7.704394E-2,5.2878094E-1,1.09099366E-1,-1.1175034E-1,-2.1122955E-1,1.9395253E-1,3.576737E-2,-2.4442764E-1,2.665523E-1,-7.181713E-2,-1.8986069E-1,-6.161469E-2,2.5333345E-1,-3.5904545E-2,-2.8310362E-1,-4.176469E-2,-1.7687616E-1,9.676149E-2,3.9023444E-2,2.3849884E-1,-2.0348142E-1,-7.918325E-2,5.6553036E-1,-7.0729814E-2,9.030975E-2,2.5271888E0,2.2683622E-1,-2.0347081E-1,1.047293E0,2.3906218E-2,2.5526764E-2,1.3578637E-1,-6.1126444E-2,-1.3563569E-1,8.423337E-2,-6.83686E-2,3.8454467E-1,-6.834108E-2,2.5597144E-2,2.8774002E-1,3.5469785E-2,-3.83353E-2,2.6865718E-1,-1.8552912E-2],"categories":[],"categories_nodes":[],"categories_segments":[],"categories_sizes":[],"default_left":[0,0,0,0,0,0,0,0,0,0,0,0,0,0,0,0,0,0,0,0,0,0,0,0,0,0,0,0,0,0,0,0,0,0,0,0,0,0,0,0,0,0,0,0,0,0,0,0,0,0,0,0,0,0,0,0,0,0,0,0,0,0,0,0,0,0,0,0,0,0,0,0,0,0,0,0,0,0,0,0,0,0,0,0,0,0,0,0,0,0,0,0,0,0,0,0,0,0,0,0,0,0,0],"id":11,"left_children":[1,3,5,7,9,11,13,15,17,19,21,23,25,27,29,31,33,35,-1,37,39,41,43,45,47,49,51,53,55,57,59,-1,-1,61,63,-1,-1,65,67,-1,69,71,73,-1,75,-1,-1,77,79,81,83,85,87,89,91,93,-1,95,97,99,101,-1,-1,-1,-1,-1,-1,-1,-1,-1,-1,-1,-1,-1,-1,-1,-1,-1,-1,-1,-1,-1,-1,-1,-1,-1,-1,-1,-1,-1,-1,-1,-1,-1,-1,-1,-1,-1,-1,-1,-1,-1,-1],"loss_changes":[7.519463E0,3.491581E0,9.564715E0,7.1103473E0,3.6170235E0,9.199627E0,3.9597929E0,3.2940671E0,2.4324665E0,3.5572681E0,5.825422E0,1.1132141E1,2.8883083E1,1.6245451E0,3.5269818E0,1.574018E-1,3.9121451E0,2.3590407E-1,0E0,1.6123439E0,1.3262949E0,4.214019E0,2.1614634E1,4.9897037E0,4.495615E0,8.4586334E1,9.152168E0,1.2451038E0,1.4853438E0,4.034127E0,2.847832E0,0E0,0E0,3.7133527E0,8.9443E0,0E0,0E0,4.261317E0,1.7818252E0,0E0,1.0368023E0,1.8133152E0,2.6992645E0,0E0,4.792128E0,0E0,0E0,5.569421E-1,2.284255E0,2.9974188E1,9.642201E1,3.42627E0,4.6354156E1,3.870231E-2,1.31985E0,5.838818E-1,0E0,3.9066124E0,5.380702E-1,2.6804702E0,1.7882397E0,0E0,0E0,0E0,0E0,0E0,0E0,0E0,0E0,0E0,0E0,0E0,0E0,0E0,0E0,0E0,0E0,0E0,0E0,0E0,0E0,0E0,0E0,0E0,0E0,0E0,0E0,0E0,0E0,0E0,0E0,0E0,0E0,0E0,0E0,0E0,0E0,0E0,0E0,0E0,0E0,0E0,0E0],"parents":[2147483647,0,0,1,1,2,2,3,3,4,4,5,5,6,6,7,7,8,8,9,9,10,10,11,11,12,12,13,13,14,14,15,15,16,16,17,17,19,19,20,20,21,21,22,22,23,23,24,24,25,25,26,26,27,27,28,28,29,29,30,30,33,33,34,34,37,37,38,38,40,40,41,41,42,42,44,44,47,47,48,48,49,49,50,50,51,51,52,52,53,53,54,54,55,55,57,57,58,58,59,59,60,60],"right_children":[2,4,6,8,10,12,14,16,18,20,22,24,26,28,30,32,34,36,-1,38,40,42,44,46,48,50,52,54,56,58,60,-1,-1,62,64,-1,-1,66,68,-1,70,72,74,-1,76,-1,-1,78,80,82,84,86,88,90,92,94,-1,96,98,100,102,-1,-1,-1,-1,-1,-1,-1,-1,-1,-1,-1,-1,-1,-1,-1,-1,-1,-1,-1,-1,-1,-1,-1,-1,-1,-1,-1,-1,-1,-1,-1,-1,-1,-1,-1,-1,-1,-1,-1,-1,-1,-1],"split_conditions":[6.2571323E1,1.5569998E0,2.7489688E2,1.0403334E0,1.3096583E1,-7.221668E-1,2.943516E2,-5.153417E0,8.707237E0,1.4689588E1,1.5496736E1,6.458317E1,3.340834E-1,2.6999996E0,2.9775223E2,1E-1,4.0050797E1,2E-1,5.1823455E-1,9.000001E-1,1.5696165E1,1.5067417E1,1.5827721E1,-2.1471667E0,1.0661107E1,2.1949987E-1,7.8200006E-1,8.373386E0,1.6023666E1,5E-1,1.03E1,-8.987362E-2,-2.3149133E-1,2.1218632E1,1.8998314E1,1.2014344E-1,-3.3848837E-2,1E-1,1.0308831E1,-3.3150253E-1,4.3223995E1,2E-1,4E-1,1.0263214E0,1E-1,7.601746E-1,-3.1168235E-2,-4.820083E0,1.9817485E2,1.3004922E1,1.565914E2,7.247434E1,9.299167E-1,-8.303416E0,4.9153333E0,1.7653333E0,1.7541857E-1,8.707237E0,-8.997166E0,1.3896187E1,1.0536166E1,1.09099366E-1,-1.1175034E-1,-2.1122955E-1,1.9395253E-1,3.576737E-2,-2.4442764E-1,2.665523E-1,-7.181713E-2,-1.8986069E-1,-6.161469E-2,2.5333345E-1,-3.5904545E-2,-2.8310362E-1,-4.176469E-2,-1.7687616E-1,9.676149E-2,3.9023444E-2,2.3849884E-1,-2.0348142E-1,-7.918325E-2,5.6553036E-1,-7.0729814E-2,9.030975E-2,2.5271888E0,2.2683622E-1,-2.0347081E-1,1.047293E0,2.3906218E-2,2.5526764E-2,1.3578637E-1,-6.1126444E-2,-1.3563569E-1,8.423337E-2,-6.83686E-2,3.8454467E-1,-6.834108E-2,2.5597144E-2,2.8774002E-1,3.5469785E-2,-3.83353E-2,2.6865718E-1,-1.8552912E-2],"split_indices":[3,0,3,0,0,0,3,0,2,2,2,3,0,1,3,1,3,1,0,1,2,0,2,0,2,0,0,2,0,1,1,0,0,2,2,0,0,1,2,0,3,1,1,0,1,0,0,0,3,2,3,3,0,0,0,0,0,2,0,2,0,0,0,0,0,0,0,0,0,0,0,0,0,0,0,0,0,0,0,0,0,0,0,0,0,0,0,0,0,0,0,0,0,0,0,0,0,0,0,0,0,0,0],"split_type":[0,0,0,0,0,0,0,0,0,0,0,0,0,0,0,0,0,0,0,0,0,0,0,0,0,0,0,0,0,0,0,0,0,0,0,0,0,0,0,0,0,0,0,0,0,0,0,0,0,0,0,0,0,0,0,0,0,0,0,0,0,0,0,0,0,0,0,0,0,0,0,0,0,0,0,0,0,0,0,0,0,0,0,0,0,0,0,0,0,0,0,0,0,0,0,0,0,0,0,0,0,0,0],"sum_hessian":[1.712E3,1.81E2,1.531E3,7.1E1,1.1E2,1.129E3,4.02E2,6.7E1,4E0,6.1E1,4.9E1,6.5E1,1.064E3,1.07E2,2.95E2,8E0,5.9E1,2E0,2E0,2.3E1,3.8E1,2.5E1,2.4E1,2E0,6.3E1,3.8E1,1.026E3,9.3E1,1.4E1,2E1,2.75E2,3E0,5E0,3.7E1,2.2E1,1E0,1E0,1.9E1,4E0,5E0,3.3E1,7E0,1.8E1,1E0,2.3E1,1E0,1E0,5E0,5.8E1,3.3E1,5E0,2E1,1.006E3,2E0,9.1E1,1.1E1,3E0,1.2E1,8E0,2.68E2,7E0,2.9E1,8E0,1.6E1,6E0,1.2E1,7E0,2E0,2E0,2.4E1,9E0,2E0,5E0,1.1E1,7E0,8E0,1.5E1,3E0,2E0,2.3E1,3.5E1,8E0,2.5E1,3E0,2E0,1E0,1.9E1,3E0,1.003E3,1E0,1E0,5E1,4.1E1,2E0,9E0,1E0,1.1E1,1E0,7E0,5.5E1,2.13E2,4E0,3E0],"tree_param":{"num_deleted":"0","num_feature":"4","num_nodes":"103","size_leaf_vector":"1"}},{"base_weights":[1.7498638E-2,-9.481073E-2,4.6200816E-2,-2.2641344E-1,1.4581043E-1,9.0246594E-1,1.49815995E-2,-1.3930336E-1,-7.14232E-1,3.826905E-2,1.2470746E0,1.8062439E0,-3.455459E-1,-1.0351624E0,3.196006E-2,-2.6278087E-1,1.19662665E-1,-1.1693684E0,2.1763214E-1,2.4036007E-1,-3.5653058E-1,1.9854474E0,-5.414396E-1,7.472866E-2,3.5324214E0,1.3900892E0,-8.357006E-1,-1.7207562E0,-4.808927E-1,7.7990097E-1,-5.064201E-4,1.2278803E-1,-4.3979326E-1,1.2442129E0,-1.9760466E-1,2.3397513E-2,-5.4212105E-1,1.3410345E0,-5.1169837E-1,3.4164083E-1,-1.266155E0,-5.5180836E-1,3.5570732E-1,2.4825454E0,3.294355E-1,-5.4709747E-2,-2.4279915E-1,-1.0536822E0,1.5148671E0,1.540284E0,4.8339887E0,2.343904E0,-3.6377558E-1,-1.4683825E0,-2.4598494E-1,-7.51077E-1,-8.2352585E-1,-1.0283115E0,1.3522509E-1,2.0984344E0,6.234437E-2,-1.9332014E0,1.1983133E-2,-2.1039458E-2,1.2048736E0,-8.5132934E-2,-2.2745438E-1,1.3458693E-1,1.2035505E0,-4.9729383E-1,-3.0670594E-2,-2.326278E-1,3.64735E-1,-5.0999194E-2,1.1077744E0,2.9220903E-1,-2.5892773E-1,7.194702E-2,7.810502E-1,-1.7877866E-2,-6.151996E-1,-2.1176472E-1,-6.1830776E-3,-1.7517567E-1,7.288798E-1,9.0054536E-1,2.8880024E-1,1.758879E-1,-2.7641917E-2,-6.157357E-1,2.1236812E-1,8.088128E-1,-2.8761432E-1,-1.5497383E-1,9.6362305E-1,6.512663E-1,2.0863106E0,-5.3529744E-4,9.3791854E-1,-2.1884105E-1,-5.2975076E-1,4.1593768E-2,-3.5690165E-1,1.9665024E-1,-3.490478E-1,-3.7400058E-1,4.227469E-2,2.215562E-1,-7.6139174E-2,1.2820406E0,1.4206265E-1,-7.252746E-2,5.988396E-1,-8.618907E-2,-8.589855E-1,5.6298244E-1,4.1368397E-4],"categories":[],"categories_nodes":[],"categories_segments":[],"categories_sizes":[],"default_left":[0,0,0,0,0,0,0,0,0,0,0,0,0,0,0,0,0,0,0,0,0,0,0,0,0,0,0,0,0,0,0,0,0,0,0,0,0,0,0,0,0,0,0,0,0,0,0,0,0,0,0,0,0,0,0,0,0,0,0,0,0,0,0,0,0,0,0,0,0,0,0,0,0,0,0,0,0,0,0,0,0,0,0,0,0,0,0,0,0,0,0,0,0,0,0,0,0,0,0,0,0,0,0,0,0,0,0,0,0,0,0,0,0,0,0,0,0],"id":12,"left_children":[1,3,5,7,9,11,13,15,17,19,21,23,25,27,29,31,33,35,37,39,41,43,45,47,49,51,53,55,57,59,61,63,65,67,69,71,-1,73,75,77,79,81,83,85,87,-1,-1,89,91,93,95,97,-1,99,101,103,-1,105,107,109,111,113,115,-1,-1,-1,-1,-1,-1,-1,-1,-1,-1,-1,-1,-1,-1,-1,-1,-1,-1,-1,-1,-1,-1,-1,-1,-1,-1,-1,-1,-1,-1,-1,-1,-1,-1,-1,-1,-1,-1,-1,-1,-1,-1,-1,-1,-1,-1,-1,-1,-1,-1,-1,-1,-1,-1],"loss_changes":[5.5262756E0,1.1084585E1,3.647556E1,9.504128E0,1.4637777E1,5.476456E1,2.35328E1,6.2029066E0,1.4674751E1,9.181239E0,1.5601492E1,8.34253E1,1.902702E1,7.152582E0,3.1519741E1,8.994814E0,2.2723194E1,1.7536747E1,1.0518185E1,1.2028725E1,5.620567E0,5.767765E0,2.3717618E-1,2.5972208E1,2.8854904E1,1.5254531E1,5.9815416E0,6.8776703E0,4.5236216E0,5.095978E1,3.0075594E1,3.182887E1,4.255495E0,2.9026682E1,6.7926893E0,9.515303E0,0E0,1.8394035E1,5.0172873E0,1.5956985E1,4.6105976E0,2.5226097E0,1.8956837E1,1.8456306E0,3.788751E-1,0E0,0E0,1.7287605E1,2.3036871E1,2.5729836E1,3.0077133E1,7.347498E0,0E0,4.7021294E-1,3.7946553E0,4.243239E0,0E0,1.9628386E0,1.8303026E0,6.512607E1,2.1653091E1,1.1424013E1,2.4476177E1,0E0,0E0,0E0,0E0,0E0,0E0,0E0,0E0,0E0,0E0,0E0,0E0,0E0,0E0,0E0,0E0,0E0,0E0,0E0,0E0,0E0,0E0,0E0,0E0,0E0,0E0,0E0,0E0,0E0,0E0,0E0,0E0,0E0,0E0,0E0,0E0,0E0,0E0,0E0,0E0,0E0,0E0,0E0,0E0,0E0,0E0,0E0,0E0,0E0,0E0,0E0,0E0,0E0,0E0],"parents":[2147483647,0,0,1,1,2,2,3,3,4,4,5,5,6,6,7,7,8,8,9,9,10,10,11,11,12,12,13,13,14,14,15,15,16,16,17,17,18,18,19,19,20,20,21,21,22,22,23,23,24,24,25,25,26,26,27,27,28,28,29,29,30,30,31,31,32,32,33,33,34,34,35,35,37,37,38,38,39,39,40,40,41,41,42,42,43,43,44,44,47,47,48,48,49,49,50,50,51,51,53,53,54,54,55,55,57,57,58,58,59,59,60,60,61,61,62,62],"right_children":[2,4,6,8,10,12,14,16,18,20,22,24,26,28,30,32,34,36,38,40,42,44,46,48,50,52,54,56,58,60,62,64,66,68,70,72,-1,74,76,78,80,82,84,86,88,-1,-1,90,92,94,96,98,-1,100,102,104,-1,106,108,110,112,114,116,-1,-1,-1,-1,-1,-1,-1,-1,-1,-1,-1,-1,-1,-1,-1,-1,-1,-1,-1,-1,-1,-1,-1,-1,-1,-1,-1,-1,-1,-1,-1,-1,-1,-1,-1,-1,-1,-1,-1,-1,-1,-1,-1,-1,-1,-1,-1,-1,-1,-1,-1,-1,-1,-1],"split_conditions":[1.2397658E2,1.0000001E0,1.4044035E2,1.0340668E2,1.6559084E1,1.6516901E1,1.4608827E2,1.2492417E1,1.6842417E1,6E0,1.8782204E1,1.3202726E1,1.2683972E2,1.54800005E1,1.5894662E2,7.499506E-4,1.4571583E1,3.0340834E0,1.8802832E1,1.2009584E2,1.4494502E1,1.1263491E2,1.975075E1,1.5150749E1,2E-1,5.5000005E0,1.3285866E2,2E-1,9.000001E-1,7.025751E0,1.6104431E2,-1.5133333E-1,6.7232155E1,8.6734856E1,1.4981999E1,2.0049167E0,-5.4212105E-1,1.8025751E1,9.957108E0,1.1521448E2,7.499506E-4,1.5E1,1.0128479E2,1E1,1.76445E1,-5.4709747E-2,-2.4279915E-1,3.3000002E0,1.8600748E1,1.4857001E1,1.4904173E1,1.7533146E1,-3.6377558E-1,2.1528332E0,2.3584808E1,1.4357127E2,-8.2352585E-1,1.2171584E1,3.7E0,4E-1,1.5718459E2,5.2465835E0,1.618219E2,-2.1039458E-2,1.2048736E0,-8.5132934E-2,-2.2745438E-1,1.3458693E-1,1.2035505E0,-4.9729383E-1,-3.0670594E-2,-2.326278E-1,3.64735E-1,-5.0999194E-2,1.1077744E0,2.9220903E-1,-2.5892773E-1,7.194702E-2,7.810502E-1,-1.7877866E-2,-6.151996E-1,-2.1176472E-1,-6.1830776E-3,-1.7517567E-1,7.288798E-1,9.0054536E-1,2.8880024E-1,1.758879E-1,-2.7641917E-2,-6.157357E-1,2.1236812E-1,8.088128E-1,-2.8761432E-1,-1.5497383E-1,9.6362305E-1,6.512663E-1,2.0863106E0,-5.3529744E-4,9.3791854E-1,-2.1884105E-1,-5.2975076E-1,4.1593768E-2,-3.5690165E-1,1.9665024E-1,-3.490478E-1,-3.7400058E-1,4.227469E-2,2.215562E-1,-7.6139174E-2,1.2820406E0,1.4206265E-1,-7.252746E-2,5.988396E-1,-8.618907E-2,-8.589855E-1,5.6298244E-1,4.1368397E-4],"split_indices":[3,1,3,3,0,2,3,0,0,1,2,2,3,2,3,0,0,0,0,3,0,3,0,0,1,1,3,1,1,0,3,0,3,3,0,0,0,0,2,3,0,1,3,1,0,0,0,1,0,0,2,2,0,0,2,3,0,0,1,1,3,0,3,0,0,0,0,0,0,0,0,0,0,0,0,0,0,0,0,0,0,0,0,0,0,0,0,0,0,0,0,0,0,0,0,0,0,0,0,0,0,0,0,0,0,0,0,0,0,0,0,0,0,0,0,0,0],"split_type":[0,0,0,0,0,0,0,0,0,0,0,0,0,0,0,0,0,0,0,0,0,0,0,0,0,0,0,0,0,0,0,0,0,0,0,0,0,0,0,0,0,0,0,0,0,0,0,0,0,0,0,0,0,0,0,0,0,0,0,0,0,0,0,0,0,0,0,0,0,0,0,0,0,0,0,0,0,0,0,0,0,0,0,0,0,0,0,0,0,0,0,0,0,0,0,0,0,0,0,0,0,0,0,0,0,0,0,0,0,0,0,0,0,0,0,0,0],"sum_hessian":[1.712E3,3.48E2,1.364E3,2.25E2,1.23E2,4.7E1,1.317E3,1.92E2,3.3E1,1.13E2,1E1,2.7E1,2E1,2E1,1.297E3,1.3E2,6.2E1,2.2E1,1.1E1,7.5E1,3.8E1,7E0,3E0,1.4E1,1.3E1,4E0,1.6E1,8E0,1.2E1,5.3E1,1.244E3,4.1E1,8.9E1,1.3E1,4.9E1,8E0,1.4E1,4E0,7E0,7.1E1,4E0,3E1,8E0,5E0,2E0,2E0,1E0,8E0,6E0,6E0,7E0,3E0,1E0,7E0,9E0,5E0,3E0,6E0,6E0,1.8E1,3.5E1,7E0,1.237E3,4E1,1E0,6.1E1,2.8E1,1.1E1,2E0,2E0,4.7E1,5E0,3E0,3E0,1E0,1E0,6E0,6.9E1,2E0,2E0,2E0,2.3E1,7E0,6E0,2E0,3E0,2E0,1E0,1E0,5E0,3E0,4E0,2E0,3E0,3E0,4E0,3E0,1E0,2E0,3E0,4E0,7E0,2E0,1E0,4E0,5E0,1E0,2E0,4E0,7E0,1.1E1,3.1E1,4E0,3E0,4E0,6E0,1.231E3],"tree_param":{"num_deleted":"0","num_feature":"4","num_nodes":"117","size_leaf_vector":"1"}},{"base_weights":[1.6649155E-2,1.1001711E-2,6.149436E-1,3.0085477E-1,1.2979882E-3,9.8729566E-2,1.2645433E0,-3.4175268E-3,1.1124754E0,-7.965068E-1,1.8134777E-2,-2.4405691E-1,6.739235E-1,7.358401E-2,4.1806218E-1,2.3894645E-1,-4.8790136E-1,2.4911098E0,3.846892E-1,-1.2834283E0,-2.3408951E-1,5.398751E-2,-8.498543E-2,1.4232087E-1,-1.7082614E-1,-3.9185572E-2,2.9569313E-1,9.319335E-4,1.3336269E0,6.891964E-1,-7.4151736E-1,9.9627745E-1,8.3092517E-1,1.37371E0,1.2272384E-2,-2.396E0,-9.011807E-1,-4.6636674E-1,6.374032E-1,3.5522204E-2,1.0854739E0,-1.22421026E-1,5.5999774E-1,7.216034E-2,-2.2847988E-2,-7.96908E-2,2.5347254E-1,4.7821665E-1,4.3786883E-2,3.1874543E-1,-8.607049E-3,-4.3785942E-1,-1.0200277E-1,3.2596637E-2,3.4131968E-1,4.9210455E-2,5.6895906E-1,9.553938E-2,-3.6211815E-2,-2.658967E-1,-1.0387549E0,-3.1679603E-1,2.1011759E-2,-2.3890407E-1,-6.7868168E-3,2.2846113E-1,3.9750233E-2,2.4465073E-2,-3.424669E-2,8.45608E-1,5.2587083E-3,-4.2088702E-2,3.1705636E-1,-8.649236E-2,2.629077E-1],"categories":[],"categories_nodes":[],"categories_segments":[],"categories_sizes":[],"default_left":[0,0,0,0,0,0,0,0,0,0,0,0,0,0,0,0,0,0,0,0,0,0,0,0,0,0,0,0,0,0,0,0,0,0,0,0,0,0,0,0,0,0,0,0,0,0,0,0,0,0,0,0,0,0,0,0,0,0,0,0,0,0,0,0,0,0,0,0,0,0,0,0,0,0,0],"id":13,"left_children":[1,3,5,7,9,11,13,15,17,19,21,23,25,-1,-1,27,29,31,33,35,37,39,41,43,-1,-1,-1,45,47,49,51,-1,53,55,57,59,61,63,65,67,69,71,73,-1,-1,-1,-1,-1,-1,-1,-1,-1,-1,-1,-1,-1,-1,-1,-1,-1,-1,-1,-1,-1,-1,-1,-1,-1,-1,-1,-1,-1,-1,-1,-1],"loss_changes":[5.7811794E0,4.7754955E0,5.240472E0,1.3586255E1,2.2097425E1,2.1361625E0,5.785656E-1,4.930861E0,1.4091963E1,9.010567E0,5.9606824E0,9.610332E-1,1.1319114E0,0E0,0E0,7.294152E0,4.690483E0,4.12879E0,4.0347495E0,5.4957733E0,3.7385383E0,2.274131E1,1.0113014E1,1.0415025E-1,0E0,0E0,0E0,5.623888E0,1.3138552E0,8.34419E-1,2.9632068E0,0E0,5.4117155E-1,1.5862303E0,4.0489325E-1,3.3714771E0,2.3292208E0,2.0319583E0,1.497978E-1,8.111217E0,3.8821228E1,8.453444E0,6.4251943E0,0E0,0E0,0E0,0E0,0E0,0E0,0E0,0E0,0E0,0E0,0E0,0E0,0E0,0E0,0E0,0E0,0E0,0E0,0E0,0E0,0E0,0E0,0E0,0E0,0E0,0E0,0E0,0E0,0E0,0E0,0E0,0E0],"parents":[2147483647,0,0,1,1,2,2,3,3,4,4,5,5,6,6,7,7,8,8,9,9,10,10,11,11,12,12,15,15,16,16,17,17,18,18,19,19,20,20,21,21,22,22,23,23,27,27,28,28,29,29,30,30,32,32,33,33,34,34,35,35,36,36,37,37,38,38,39,39,40,40,41,41,42,42],"right_children":[2,4,6,8,10,12,14,16,18,20,22,24,26,-1,-1,28,30,32,34,36,38,40,42,44,-1,-1,-1,46,48,50,52,-1,54,56,58,60,62,64,66,68,70,72,74,-1,-1,-1,-1,-1,-1,-1,-1,-1,-1,-1,-1,-1,-1,-1,-1,-1,-1,-1,-1,-1,-1,-1,-1,-1,-1,-1,-1,-1,-1,-1,-1],"split_conditions":[2.2373667E1,9.504272E0,1E-1,9.19939E0,1.0233123E1,1.6375053E1,1.081073E2,8.707237E0,1E-1,1E-1,2.1E0,2.285283E1,2.285283E1,7.358401E-2,4.1806218E-1,1.6E0,4.822577E1,6.4257503E0,1.3778334E0,1.8132502E0,1.9000001E0,1.9000001E0,1.9204914E1,1.272283E1,-1.7082614E-1,-3.9185572E-2,2.9569313E-1,8.373386E0,1.1400001E1,1.2278333E0,1.5175465E2,9.9627745E-1,1.3942417E1,-4.820083E0,2E-1,9.299167E-1,2.1449258E2,1.747783E1,4.2000003E0,1.5259082E1,2.1410452E2,3.5728977E1,3.4999998E0,7.216034E-2,-2.2847988E-2,-7.96908E-2,2.5347254E-1,4.7821665E-1,4.3786883E-2,3.1874543E-1,-8.607049E-3,-4.3785942E-1,-1.0200277E-1,3.2596637E-2,3.4131968E-1,4.9210455E-2,5.6895906E-1,9.553938E-2,-3.6211815E-2,-2.658967E-1,-1.0387549E0,-3.1679603E-1,2.1011759E-2,-2.3890407E-1,-6.7868168E-3,2.2846113E-1,3.9750233E-2,2.4465073E-2,-3.424669E-2,8.45608E-1,5.2587083E-3,-4.2088702E-2,3.1705636E-1,-8.649236E-2,2.629077E-1],"split_indices":[0,2,1,2,2,2,3,2,1,1,1,0,0,0,0,1,3,0,0,0,1,1,0,2,0,0,0,2,1,0,3,0,0,0,1,0,3,0,1,0,3,2,1,0,0,0,0,0,0,0,0,0,0,0,0,0,0,0,0,0,0,0,0,0,0,0,0,0,0,0,0,0,0,0,0],"split_type":[0,0,0,0,0,0,0,0,0,0,0,0,0,0,0,0,0,0,0,0,0,0,0,0,0,0,0,0,0,0,0,0,0,0,0,0,0,0,0,0,0,0,0,0,0,0,0,0,0,0,0,0,0,0,0,0,0,0,0,0,0,0,0,0,0,0,0,0,0,0,0,0,0,0,0],"sum_hessian":[1.712E3,1.697E3,1.5E1,5.4E1,1.643E3,9E0,6E0,4E1,1.4E1,3.3E1,1.61E3,6E0,3E0,1E0,5E0,2.7E1,1.3E1,4E0,1E1,1.7E1,1.6E1,1.195E3,4.15E2,3E0,3E0,1E0,2E0,2.3E1,4E0,2E0,1.1E1,2E0,2E0,2E0,8E0,3E0,1.4E1,1.3E1,3E0,1.175E3,2E1,3.93E2,2.2E1,2E0,1E0,1.8E1,5E0,3E0,1E0,1E0,1E0,3E0,8E0,1E0,1E0,1E0,1E0,2E0,6E0,2E0,1E0,1.2E1,2E0,7E0,6E0,2E0,1E0,8.99E2,2.76E2,7E0,1.3E1,3.88E2,5E0,6E0,1.6E1],"tree_param":{"num_deleted":"0","num_feature":"4","num_nodes":"75","size_leaf_vector":"1"}},{"base_weights":[1.3321048E-2,3.997906E-2,-7.343323E-2,-6.0890846E-2,7.649372E-2,-9.8785326E-2,1.4111423E-1,-1.4907664E-1,1.6330637E-1,7.6765484E-1,4.570921E-2,-2.2141255E-1,-5.5405684E-2,-6.637817E-2,2.2357512E-1,-4.7319416E-2,-4.5850882E-1,9.5794743E-1,6.791606E-2,1.4570708E0,-1.9421397E-1,-4.335312E-1,7.191678E-2,3.5755396E-1,-2.3788524E-1,2.4800166E-1,-7.824302E-2,-2.2485675E-1,3.464128E-1,3.206598E-1,-1.2368679E-2,7.1560726E-2,-2.0817739E-1,-9.2752254E-1,-1.5812835E-1,-1.265078E-1,8.7273544E-1,3.9470893E-1,2.9049067E0,1.0948334E0,-6.407156E-1,-6.4656043E-1,7.124351E-1,1.4298419E0,3.851918E-2,3.3589303E-2,1.2730998E-1,-3.754714E-1,-1.3411216E-1,-2.603762E-2,7.2150296E-1,7.384087E-2,-1.1855718E-1,-1.5786004E-1,-8.37459E-2,1.9159533E-1,-7.954529E-2,1.7607856E-1,3.9070058E-1,5.9875514E-2,-9.030524E-2,-1.0912873E-2,1.8757784E-1,-4.9647696E-2,-2.1424769E-1,-3.18918E-1,3.2847548E-1,2.736055E-1,-1.0269808E-1,-4.7142366E-3,-2.429957E-1,4.334096E-1,-1.8219034E-1,-2.2250469E-1,5.3981894E-1,7.33639E-2,1.3913168E0,8.845451E-1,-3.1710006E-2,-3.303758E-1,-6.857055E-3,5.986968E-2,-2.777826E-1,5.2234495E-1,-7.590707E-2,-3.183392E-1,5.711867E-1,3.2625094E-2,-4.361111E-2,-6.634435E-2,-1.4916539E-1,4.3522906E-1,-5.7416514E-2,2.8878E-1,-5.659223E-2,1.2260548E-1,3.8976172E-1,-2.8590595E-2,6.508999E-1,1.5653651E-2,-6.3700825E-2,-3.1858146E-2,1.100843E-2,1.0508489E-1,9.178767E-3,8.59392E-2,2.0322405E-1,4.0807076E-2,-4.262096E-2],"categories":[],"categories_nodes":[],"categories_segments":[],"categories_sizes":[],"default_left":[0,0,0,0,0,0,0,0,0,0,0,0,0,0,0,0,0,0,0,0,0,0,0,0,0,0,0,0,0,0,0,0,0,0,0,0,0,0,0,0,0,0,0,0,0,0,0,0,0,0,0,0,0,0,0,0,0,0,0,0,0,0,0,0,0,0,0,0,0,0,0,0,0,0,0,0,0,0,0,0,0,0,0,0,0,0,0,0,0,0,0,0,0,0,0,0,0,0,0,0,0,0,0,0,0,0,0,0,0],"id":14,"left_children":[1,3,5,7,9,11,13,15,17,19,21,23,25,27,29,31,33,-1,35,37,39,41,43,45,47,49,51,53,55,57,59,61,63,65,67,69,71,73,75,77,79,81,83,85,87,-1,-1,89,91,93,95,97,99,-1,101,-1,-1,103,105,-1,107,-1,-1,-1,-1,-1,-1,-1,-1,-1,-1,-1,-1,-1,-1,-1,-1,-1,-1,-1,-1,-1,-1,-1,-1,-1,-1,-1,-1,-1,-1,-1,-1,-1,-1,-1,-1,-1,-1,-1,-1,-1,-1,-1,-1,-1,-1,-1,-1],"loss_changes":[3.9645846E0,4.8333726E0,2.2059493E0,6.924427E0,2.0454716E1,1.908081E0,7.5057065E-1,7.8815303E0,2.8395964E1,2.7471218E1,1.1623805E1,9.8154783E-1,1.8763807E0,9.2833406E-1,7.140684E-1,3.648233E0,8.588051E0,0E0,1.52885895E1,3.576843E1,1.1061587E1,1.2178602E1,3.967278E1,1.7115176E-3,1.2631965E0,2.4841876E0,1.541538E0,3.8116103E-1,8.8422835E-1,1.5399098E-1,1.8321301E-1,6.596846E0,1.6312397E0,7.742754E0,7.999868E0,5.9695487E0,1.6961369E1,2.5278698E1,4.496501E1,1.14384985E1,3.9584846E0,9.876856E0,8.386003E0,2.6821442E1,1.1070852E1,0E0,0E0,6.227875E-1,5.1795454E0,2.271408E0,7.340448E-1,1.8994947E1,3.1813438E0,0E0,2.5525887E-2,0E0,0E0,2.1737626E-1,2.2434902E-1,0E0,1.1305148E-1,0E0,0E0,0E0,0E0,0E0,0E0,0E0,0E0,0E0,0E0,0E0,0E0,0E0,0E0,0E0,0E0,0E0,0E0,0E0,0E0,0E0,0E0,0E0,0E0,0E0,0E0,0E0,0E0,0E0,0E0,0E0,0E0,0E0,0E0,0E0,0E0,0E0,0E0,0E0,0E0,0E0,0E0,0E0,0E0,0E0,0E0,0E0,0E0],"parents":[2147483647,0,0,1,1,2,2,3,3,4,4,5,5,6,6,7,7,8,8,9,9,10,10,11,11,12,12,13,13,14,14,15,15,16,16,18,18,19,19,20,20,21,21,22,22,23,23,24,24,25,25,26,26,27,27,28,28,29,29,30,30,31,31,32,32,33,33,34,34,35,35,36,36,37,37,38,38,39,39,40,40,41,41,42,42,43,43,44,44,47,47,48,48,49,49,50,50,51,51,52,52,54,54,57,57,58,58,60,60],"right_children":[2,4,6,8,10,12,14,16,18,20,22,24,26,28,30,32,34,-1,36,38,40,42,44,46,48,50,52,54,56,58,60,62,64,66,68,70,72,74,76,78,80,82,84,86,88,-1,-1,90,92,94,96,98,100,-1,102,-1,-1,104,106,-1,108,-1,-1,-1,-1,-1,-1,-1,-1,-1,-1,-1,-1,-1,-1,-1,-1,-1,-1,-1,-1,-1,-1,-1,-1,-1,-1,-1,-1,-1,-1,-1,-1,-1,-1,-1,-1,-1,-1,-1,-1,-1,-1,-1,-1,-1,-1,-1,-1],"split_conditions":[2.7489688E2,1.2397658E2,3.1999998E0,1.3832001E1,1.389961E2,2.943516E2,1.5072783E1,8.6734856E1,1.4009083E1,1.6516901E1,1.5175465E2,8.373386E0,2.9775223E2,1.3599999E1,2.266857E1,3.6382496E0,2E-1,9.5794743E-1,4.4999995E0,1.3493999E1,1.2683972E2,1.8600748E1,1.565914E2,-8.303416E0,1.6516901E1,5E-1,1.3896187E1,9.969501E0,1.420062E1,2.934492E2,-2.9992497E0,6.970233E1,1.3390332E1,1.2009584E2,1.1119281E1,1.4000001E0,1.33E1,1.5150749E1,2E-1,1.3778334E0,1.3285866E2,4.9882507E0,1E-1,1.8132502E0,2.1E0,3.3589303E-2,1.2730998E-1,2.8233905E2,1.665754E1,8.707237E0,1.1000001E0,1.3493999E1,7.499506E-4,-1.5786004E-1,1.9434084E1,1.9159533E-1,-7.954529E-2,1.8532133E1,1.03E1,5.9875514E-2,2.7561743E2,-1.0912873E-2,1.8757784E-1,-4.9647696E-2,-2.1424769E-1,-3.18918E-1,3.2847548E-1,2.736055E-1,-1.0269808E-1,-4.7142366E-3,-2.429957E-1,4.334096E-1,-1.8219034E-1,-2.2250469E-1,5.3981894E-1,7.33639E-2,1.3913168E0,8.845451E-1,-3.1710006E-2,-3.303758E-1,-6.857055E-3,5.986968E-2,-2.777826E-1,5.2234495E-1,-7.590707E-2,-3.183392E-1,5.711867E-1,3.2625094E-2,-4.361111E-2,-6.634435E-2,-1.4916539E-1,4.3522906E-1,-5.7416514E-2,2.8878E-1,-5.659223E-2,1.2260548E-1,3.8976172E-1,-2.8590595E-2,6.508999E-1,1.5653651E-2,-6.3700825E-2,-3.1858146E-2,1.100843E-2,1.0508489E-1,9.178767E-3,8.59392E-2,2.0322405E-1,4.0807076E-2,-4.262096E-2],"split_indices":[3,3,1,0,3,3,2,3,0,2,3,2,3,1,2,0,1,0,1,2,3,0,3,0,2,1,2,0,2,3,0,3,0,3,2,1,1,0,1,0,3,0,1,0,1,0,0,3,2,2,1,2,0,0,0,0,0,2,1,0,3,0,0,0,0,0,0,0,0,0,0,0,0,0,0,0,0,0,0,0,0,0,0,0,0,0,0,0,0,0,0,0,0,0,0,0,0,0,0,0,0,0,0,0,0,0,0,0,0],"split_type":[0,0,0,0,0,0,0,0,0,0,0,0,0,0,0,0,0,0,0,0,0,0,0,0,0,0,0,0,0,0,0,0,0,0,0,0,0,0,0,0,0,0,0,0,0,0,0,0,0,0,0,0,0,0,0,0,0,0,0,0,0,0,0,0,0,0,0,0,0,0,0,0,0,0,0,0,0,0,0,0,0,0,0,0,0,0,0,0,0,0,0,0,0,0,0,0,0,0,0,0,0,0,0,0,0,0,0,0,0],"sum_hessian":[1.712E3,1.31E3,4.02E2,3.48E2,9.62E2,3.6E2,4.2E1,2.5E2,9.8E1,4E1,9.22E2,9.3E1,2.67E2,1.2E1,3E1,1.89E2,6.1E1,2E0,9.6E1,2.3E1,1.7E1,4.7E1,8.75E2,2E0,9.1E1,1.8E1,2.49E2,9E0,3E0,2.1E1,9E0,1.09E2,8E1,2.3E1,3.8E1,7.8E1,1.8E1,1.4E1,9E0,4E0,1.3E1,4E1,7E0,2E1,8.55E2,1E0,1E0,3.8E1,5.3E1,1.2E1,6E0,5.2E1,1.97E2,2E0,7E0,2E0,1E0,8E0,1.3E1,2E0,7E0,9.2E1,1.7E1,7.5E1,5E0,2.2E1,1E0,5E0,3.3E1,6.8E1,1E1,1.3E1,5E0,8E0,6E0,4E0,5E0,1E0,3E0,7E0,6E0,1E1,3E1,3E0,4E0,3E0,1.7E1,6.19E2,2.36E2,1.8E1,2E1,1E0,5.2E1,1E0,1.1E1,5E0,1E0,4.9E1,3E0,7E1,1.27E2,6E0,1E0,3E0,5E0,1.1E1,2E0,1E0,6E0],"tree_param":{"num_deleted":"0","num_feature":"4","num_nodes":"109","size_leaf_vector":"1"}},{"base_weights":[1.2745322E-2,2.6240748E-1,4.460714E-3,2.795425E-2,8.857525E-1,-5.267243E-1,1.556516E-2,-1.2576993E-1,4.5863563E-1,1.9215577E0,3.34409E-1,-9.960653E-2,-1.0610996E0,-1.14467956E-1,3.4091253E-2,3.7756613E-1,-2.616732E-1,8.529718E-1,-4.446956E-1,7.4276227E-1,7.2672194E-1,9.8428655E-1,-3.23309E-2,-2.822893E-1,5.0570494E-1,-8.9369446E-1,-3.333807E-1,-1.5910825E-1,5.502062E-1,4.4253108E-1,1.23309E-2,5.001891E-1,-5.3725757E-2,2.6248112E-1,-4.4101045E-1,1.4696077E0,4.024919E-1,-2.0340051E-1,-4.227791E-2,3.6195982E-2,2.9082888E-1,9.006229E-2,4.5547852E-1,-2.4809039E-1,1.4674287E-1,-5.0618213E-1,6.8385434E-1,1.8445246E-1,-4.5539257E-1,5.5916756E-1,-1.7746264E-1,1.2122931E0,2.303508E-1,1.670732E-1,2.62531E0,8.6587586E-2,-4.2827968E-2,-2.459568E-2,1.8990636E-1,1.0115564E-3,2.7257052E-1,-2.8637356E-1,-3.9164983E-2,1.0821348E-1,5.5311E-1,3.7662115E-2,1.91279E-1,-8.8804394E-2,-1.564765E-2,6.66934E-2,6.678033E-3,-1.8926357E-1,7.3338516E-2,2.3279758E-1,6.1116226E-2,8.797188E-2,-4.968274E-3,-1.9250502E-1,-4.2229544E-2,2.5240263E-1,-8.542954E-2,-9.667212E-2,-1.2807792E-2,5.6046225E-2,6.4330655E-1,8.202573E-2,-2.3589546E-2,4.1266638E-1,-2.329823E-2,2.1121016E0,-5.926812E-3,1.384517E-1,6.5312725E-3,-1.6035179E-2,2.608725E-1],"categories":[],"categories_nodes":[],"categories_segments":[],"categories_sizes":[],"default_left":[0,0,0,0,0,0,0,0,0,0,0,0,0,0,0,0,0,0,0,0,0,0,0,0,0,0,0,0,0,0,0,0,0,0,0,0,0,0,0,0,0,0,0,0,0,0,0,0,0,0,0,0,0,0,0,0,0,0,0,0,0,0,0,0,0,0,0,0,0,0,0,0,0,0,0,0,0,0,0,0,0,0,0,0,0,0,0,0,0,0,0,0,0,0,0],"id":15,"left_children":[1,3,5,7,9,11,13,15,17,19,21,23,25,27,29,31,33,35,37,-1,39,41,43,45,-1,-1,47,49,51,53,55,57,-1,59,61,63,65,-1,-1,-1,-1,-1,-1,67,69,71,73,75,77,79,81,83,85,87,89,91,93,-1,-1,-1,-1,-1,-1,-1,-1,-1,-1,-1,-1,-1,-1,-1,-1,-1,-1,-1,-1,-1,-1,-1,-1,-1,-1,-1,-1,-1,-1,-1,-1,-1,-1,-1,-1,-1,-1],"loss_changes":[3.5419183E0,8.013227E0,9.793835E0,2.7721345E0,7.9236813E0,7.6545086E0,3.9209454E0,2.2193549E0,4.2976904E0,1.5123138E0,2.6535192E0,6.998683E0,1.9942049E1,6.1108055E0,1.2650763E1,5.6738514E-1,2.4657664E0,1.6307516E0,1.8793648E-1,0E0,3.243276E-1,1.0053308E0,3.455004E-1,4.4560947E0,0E0,0E0,8.421799E-1,2.6172829E0,2.4737842E0,4.285236E1,5.5454807E0,5.1588726E-1,0E0,1.1687868E0,2.9047892E0,5.794444E-1,3.1063157E-1,0E0,0E0,0E0,0E0,0E0,0E0,2.2119716E-2,4.2086177E-2,1.6518669E0,1.8867731E-2,7.045932E-2,4.9579525E-1,1.4302661E0,3.6349306E0,3.4226046E0,1.5457284E-1,1.9330994E1,9.3563416E1,1.4011599E1,7.5772533E0,0E0,0E0,0E0,0E0,0E0,0E0,0E0,0E0,0E0,0E0,0E0,0E0,0E0,0E0,0E0,0E0,0E0,0E0,0E0,0E0,0E0,0E0,0E0,0E0,0E0,0E0,0E0,0E0,0E0,0E0,0E0,0E0,0E0,0E0,0E0,0E0,0E0,0E0],"parents":[2147483647,0,0,1,1,2,2,3,3,4,4,5,5,6,6,7,7,8,8,9,9,10,10,11,11,12,12,13,13,14,14,15,15,16,16,17,17,18,18,20,20,21,21,22,22,23,23,26,26,27,27,28,28,29,29,30,30,31,31,33,33,34,34,35,35,36,36,43,43,44,44,45,45,46,46,47,47,48,48,49,49,50,50,51,51,52,52,53,53,54,54,55,55,56,56],"right_children":[2,4,6,8,10,12,14,16,18,20,22,24,26,28,30,32,34,36,38,-1,40,42,44,46,-1,-1,48,50,52,54,56,58,-1,60,62,64,66,-1,-1,-1,-1,-1,-1,68,70,72,74,76,78,80,82,84,86,88,90,92,94,-1,-1,-1,-1,-1,-1,-1,-1,-1,-1,-1,-1,-1,-1,-1,-1,-1,-1,-1,-1,-1,-1,-1,-1,-1,-1,-1,-1,-1,-1,-1,-1,-1,-1,-1,-1,-1,-1],"split_conditions":[9.504272E0,9.19939E0,1.0233123E1,1.3536166E1,1E-1,1.5175465E2,-8.888333E-1,-3.126334E0,8.707237E0,6.4257503E0,1.6528335E0,1.4846979E2,1.8521817E2,5.2E0,3.340834E-1,1E-1,4.822577E1,1.5598666E1,1.8098665E1,7.4276227E-1,1.3942417E1,1.2000002E0,1.1521448E2,1.9000001E0,5.0570494E-1,-8.9369446E-1,9.605998E0,1.0661107E1,6E0,2.1949987E-1,2.0303464E2,7.342588E0,-5.3725757E-2,9.028754E0,1.5175465E2,1.3686168E1,8.373386E0,-2.0340051E-1,-4.227791E-2,3.6195982E-2,2.9082888E-1,9.006229E-2,4.5547852E-1,5.3632493E0,1.675492E1,1.8600748E1,4.2000003E0,-1.5133333E-1,2.1449258E2,2.3659216E2,2.7097015E2,5.5999994E0,3.0827856E1,1.3004922E1,1.6575644E1,3.0340834E0,1.3900001E1,-2.459568E-2,1.8990636E-1,1.0115564E-3,2.7257052E-1,-2.8637356E-1,-3.9164983E-2,1.0821348E-1,5.5311E-1,3.7662115E-2,1.91279E-1,-8.8804394E-2,-1.564765E-2,6.66934E-2,6.678033E-3,-1.8926357E-1,7.3338516E-2,2.3279758E-1,6.1116226E-2,8.797188E-2,-4.968274E-3,-1.9250502E-1,-4.2229544E-2,2.5240263E-1,-8.542954E-2,-9.667212E-2,-1.2807792E-2,5.6046225E-2,6.4330655E-1,8.202573E-2,-2.3589546E-2,4.1266638E-1,-2.329823E-2,2.1121016E0,-5.926812E-3,1.384517E-1,6.5312725E-3,-1.6035179E-2,2.608725E-1],"split_indices":[2,2,2,0,1,3,0,0,2,0,0,3,3,1,0,1,3,0,0,0,0,1,3,1,0,0,2,2,1,0,3,2,0,2,3,0,2,0,0,0,0,0,0,0,0,0,1,0,3,3,3,1,2,2,2,0,1,0,0,0,0,0,0,0,0,0,0,0,0,0,0,0,0,0,0,0,0,0,0,0,0,0,0,0,0,0,0,0,0,0,0,0,0,0,0],"split_type":[0,0,0,0,0,0,0,0,0,0,0,0,0,0,0,0,0,0,0,0,0,0,0,0,0,0,0,0,0,0,0,0,0,0,0,0,0,0,0,0,0,0,0,0,0,0,0,0,0,0,0,0,0,0,0,0,0,0,0,0,0,0,0,0,0,0,0,0,0,0,0,0,0,0,0,0,0,0,0,0,0,0,0,0,0,0,0,0,0,0,0,0,0,0,0],"sum_hessian":[1.712E3,5.4E1,1.658E3,4E1,1.4E1,3.3E1,1.625E3,3E1,1E1,4E0,1E1,1.9E1,1.4E1,2.02E2,1.423E3,6E0,2.4E1,7E0,3E0,2E0,2E0,3E0,7E0,1.8E1,1E0,3E0,1.1E1,1.9E2,1.2E1,7.1E1,1.352E3,5E0,1E0,6E0,1.8E1,2E0,5E0,1E0,2E0,1E0,1E0,2E0,1E0,3E0,4E0,1.5E1,3E0,2E0,9E0,4E0,1.86E2,3E0,9E0,6.4E1,7E0,5.76E2,7.76E2,1E0,4E0,5E0,1E0,6E0,1.2E1,1E0,1E0,3E0,2E0,2E0,1E0,2E0,2E0,1.3E1,2E0,2E0,1E0,1E0,1E0,5E0,4E0,3E0,1E0,8.9E1,9.7E1,2E0,1E0,8E0,1E0,1E1,5.4E1,2E0,5E0,8.4E1,4.92E2,7.68E2,8E0],"tree_param":{"num_deleted":"0","num_feature":"4","num_nodes":"95","size_leaf_vector":"1"}},{"base_weights":[1.2206817E-2,2.0287562E-2,-1.9975376E-1,6.274037E-3,6.865698E-1,-4.3156287E-1,2.518706E-1,2.0159014E-2,-4.041061E-1,2.0795379E0,3.746947E-1,1.9410539E-1,-6.0808164E-1,6.178236E-1,6.7729965E-2,1.0905447E-2,8.153599E-1,-4.575996E-1,3.566334E-1,1.0593551E0,4.7091886E-1,1.5874878E-1,6.57993E-1,-4.9288932E-2,3.042429E-1,-7.4705786E-1,5.862603E-1,-4.129584E-1,1.7078683E-1,1.4751524E-2,-7.3178905E-1,-9.486444E-1,1.3871214E0,-8.094293E-1,-1.7261021E-1,-1.8989274E-1,5.6739044E-1,-2.0012705E-1,2.5149947E-1,9.1194965E-2,1.8867734E-1,2.0344056E-1,-8.195864E-1,3.3051723E-1,-1.440196E-1,-1.419222E-1,-3.489175E-2,2.8447333E-1,-1.0399842E-1,1.3205389E-2,-2.3322534E-2,1.1244597E-1,-3.4893864E-1,-3.380473E-1,-3.5388745E-2,9.569929E-1,1.0409455E-1,2.6029906E-1,-3.031409E-1,-1.7114413E-1,-2.683736E-2,2.347262E-1,2.3894452E-2,6.860977E-2,-1.0419587E-2,-3.9424103E-1,-1.5939957E-1,1.1024457E-1,-1.0674438E-1,1.4893091E-2,-5.7969112E-2],"categories":[],"categories_nodes":[],"categories_segments":[],"categories_sizes":[],"default_left":[0,0,0,0,0,0,0,0,0,0,0,0,0,0,0,0,0,0,0,0,0,0,0,0,0,0,0,0,0,0,0,0,0,0,0,0,0,0,0,0,0,0,0,0,0,0,0,0,0,0,0,0,0,0,0,0,0,0,0,0,0,0,0,0,0,0,0,0,0,0,0],"id":16,"left_children":[1,3,5,7,9,11,13,15,17,19,21,23,25,-1,27,29,31,33,-1,-1,35,37,-1,-1,39,41,43,45,47,49,51,53,55,57,59,-1,-1,-1,61,63,-1,-1,65,-1,-1,-1,-1,67,69,-1,-1,-1,-1,-1,-1,-1,-1,-1,-1,-1,-1,-1,-1,-1,-1,-1,-1,-1,-1,-1,-1],"loss_changes":[2.9380774E0,1.5411018E1,6.7042074E0,9.227702E0,1.3991495E1,4.7566047E0,7.183036E0,1.1514431E1,5.0600595E0,1.2347971E1,1.1040768E1,4.4472086E-1,5.9154797E0,0E0,1.1108309E0,4.435452E0,1.9470505E1,5.0742044E0,0E0,0E0,7.468959E0,2.2358959E0,0E0,0E0,4.9602705E-1,3.656807E0,2.727508E0,1.631248E-2,5.9189355E-1,4.1775384E0,4.254558E0,6.07131E-1,2.5146227E1,8.631507E0,9.414814E-1,0E0,0E0,0E0,2.218669E0,1.1183609E-1,0E0,0E0,3.435892E0,0E0,0E0,0E0,0E0,8.2169724E-1,9.1851346E-2,0E0,0E0,0E0,0E0,0E0,0E0,0E0,0E0,0E0,0E0,0E0,0E0,0E0,0E0,0E0,0E0,0E0,0E0,0E0,0E0,0E0,0E0],"parents":[2147483647,0,0,1,1,2,2,3,3,4,4,5,5,6,6,7,7,8,8,9,9,10,10,11,11,12,12,14,14,15,15,16,16,17,17,20,20,21,21,24,24,25,25,26,26,27,27,28,28,29,29,30,30,31,31,32,32,33,33,34,34,38,38,39,39,42,42,47,47,48,48],"right_children":[2,4,6,8,10,12,14,16,18,20,22,24,26,-1,28,30,32,34,-1,-1,36,38,-1,-1,40,42,44,46,48,50,52,54,56,58,60,-1,-1,-1,62,64,-1,-1,66,-1,-1,-1,-1,68,70,-1,-1,-1,-1,-1,-1,-1,-1,-1,-1,-1,-1,-1,-1,-1,-1,-1,-1,-1,-1,-1,-1],"split_conditions":[1.07E1,8.9E0,2.0784749E2,6.7999997E0,1.0340668E2,5.163249E1,2.0964435E2,6.2E0,1.975075E1,9.299999E0,3.0827856E1,2.2806551E1,1.9011166E1,6.178236E-1,1.0999999E1,6E0,1.2009584E2,1.9469647E2,3.566334E-1,1.0593551E0,1.3617419E1,1.17942116E2,6.57993E-1,-4.9288932E-2,2.3233252E1,-3.7424996E-1,1.962575E1,9.969501E0,2.0240196E1,1.5259082E1,1.2661564E1,7.3278337E0,1.9435817E2,1.2181625E1,7.0999994E0,-1.8989274E-1,5.6739044E-1,-2.0012705E-1,1.639867E2,1.7873556E1,1.8867734E-1,2.0344056E-1,1.3599999E1,3.3051723E-1,-1.440196E-1,-1.419222E-1,-3.489175E-2,3.191499E2,1.2E1,1.3205389E-2,-2.3322534E-2,1.1244597E-1,-3.4893864E-1,-3.380473E-1,-3.5388745E-2,9.569929E-1,1.0409455E-1,2.6029906E-1,-3.031409E-1,-1.7114413E-1,-2.683736E-2,2.347262E-1,2.3894452E-2,6.860977E-2,-1.0419587E-2,-3.9424103E-1,-1.5939957E-1,1.1024457E-1,-1.0674438E-1,1.4893091E-2,-5.7969112E-2],"split_indices":[1,1,3,1,3,3,3,1,0,1,2,3,0,0,1,1,3,3,0,0,0,3,0,0,2,0,0,0,2,0,2,0,3,2,1,0,0,0,3,2,0,0,1,0,0,0,0,3,1,0,0,0,0,0,0,0,0,0,0,0,0,0,0,0,0,0,0,0,0,0,0],"split_type":[0,0,0,0,0,0,0,0,0,0,0,0,0,0,0,0,0,0,0,0,0,0,0,0,0,0,0,0,0,0,0,0,0,0,0,0,0,0,0,0,0,0,0,0,0,0,0,0,0,0,0,0,0,0,0,0,0,0,0,0,0,0,0,0,0,0,0,0,0,0,0],"sum_hessian":[1.712E3,1.65E3,6.2E1,1.617E3,3.3E1,4.1E1,2.1E1,1.565E3,5.2E1,5E0,2.8E1,9E0,3.2E1,1E0,2E1,1.548E3,1.7E1,5.1E1,1E0,2E0,3E0,2.6E1,2E0,2E0,7E0,2.9E1,3E0,3E0,1.7E1,1.541E3,7E0,4E0,1.3E1,2.2E1,2.9E1,2E0,1E0,2E0,2.4E1,5E0,2E0,1E0,2.8E1,2E0,1E0,2E0,1E0,1.2E1,5E0,1.171E3,3.7E2,2E0,5E0,3E0,1E0,4E0,9E0,2E0,2E1,4E0,2.5E1,5E0,1.9E1,2E0,3E0,9E0,1.9E1,1.1E1,1E0,2E0,3E0],"tree_param":{"num_deleted":"0","num_feature":"4","num_nodes":"71","size_leaf_vector":"1"}},{"base_weights":[1.038104E-2,3.17593E-3,2.2351839E-1,2.5764702E-2,-7.980698E-2,-2.58024E-2,4.565344E-1,6.266989E-3,3.1836107E0,-2.8557912E-1,1.8714191E-2,-1.328521E-1,2.7316877E-1,6.317928E-1,-3.2058838E-1,-8.964212E-2,5.92619E-2,5.3816705E0,-3.598668E-1,-6.316237E-1,-9.9692784E-2,2.0129707E-1,-1.0567356E-1,-2.3357464E-1,-1.4775058E-2,4.921095E-1,1.2071819E0,-1.9185793E-1,2.1152513E-1,-2.4029075E-1,2.7295282E-2,1.5151274E0,4.5141045E-2,1.322813E0,2.2939916E0,2.1863103E-2,-2.2575848E-1,4.7364187E-1,-7.2878355E-1,7.592456E-1,-1.6851051E-1,-7.6847285E-2,5.588503E-1,-3.573009E-1,1.058844E-1,7.143664E-1,-1.5986459E-1,-1.9008087E-1,5.8007526E-1,8.0408625E-2,4.2926705E-1,9.679828E-2,-1.6119719E-3,1.5788453E-2,-5.2259564E-1,5.873091E-1,-7.7409535E-3,-2.1258914E-1,8.973325E-1,5.2710492E-2,-1.2596997E-2,6.3430026E-2,5.3183585E-1,2.2732705E-2,-1.2894309E-2,3.1909057E-1,-2.4118288E-1,-2.192229E-1,-2.1231303E-2,1.08792916E-1,-2.1695624E-1,3.537186E-1,4.4294532E-2,-1.4665101E-1,1.2845491E-1,4.4565418E-1,1.5227244E-2,2.9630703E-1,8.8208534E-2,-7.978228E-2,6.346576E-2,3.1968606E-1,1.041557E-1],"categories":[],"categories_nodes":[],"categories_segments":[],"categories_sizes":[],"default_left":[0,0,0,0,0,0,0,0,0,0,0,0,0,0,0,0,0,0,0,0,0,0,0,0,0,0,0,0,0,0,0,0,0,0,0,0,0,0,0,0,0,0,0,0,0,0,0,0,0,0,0,0,0,0,0,0,0,0,0,0,0,0,0,0,0,0,0,0,0,0,0,0,0,0,0,0,0,0,0,0,0,0,0],"id":17,"left_children":[1,3,5,7,9,11,13,15,17,19,21,23,-1,25,27,29,31,33,35,37,39,41,43,-1,45,47,49,-1,51,53,55,57,59,61,-1,63,-1,-1,65,-1,67,69,71,73,75,77,79,-1,81,-1,-1,-1,-1,-1,-1,-1,-1,-1,-1,-1,-1,-1,-1,-1,-1,-1,-1,-1,-1,-1,-1,-1,-1,-1,-1,-1,-1,-1,-1,-1,-1,-1,-1],"loss_changes":[2.6299067E0,3.1099474E0,3.2651408E0,8.026833E1,7.202228E0,2.9276223E0,4.1522675E0,6.597567E0,6.4246895E1,7.334401E0,5.494641E0,1.9708894E0,0E0,1.3348684E0,1.1535432E0,8.145363E0,1.7118145E1,3.5850815E1,6.160151E-1,9.741213E0,1.4184431E1,9.789185E0,7.7034955E0,0E0,2.5473902E0,2.4470444E0,4.5686483E-1,0E0,7.404925E-2,8.894639E1,2.680337E1,2.8377382E1,9.437982E0,1.1254473E0,0E0,1.374466E-2,0E0,0E0,6.109064E0,0E0,4.069709E0,1.6169632E1,1.0792296E1,7.0283813E0,5.9329224E0,1.6914439E-1,8.442316E-1,0E0,1.8916001E0,0E0,0E0,0E0,0E0,0E0,0E0,0E0,0E0,0E0,0E0,0E0,0E0,0E0,0E0,0E0,0E0,0E0,0E0,0E0,0E0,0E0,0E0,0E0,0E0,0E0,0E0,0E0,0E0,0E0,0E0,0E0,0E0,0E0,0E0],"parents":[2147483647,0,0,1,1,2,2,3,3,4,4,5,5,6,6,7,7,8,8,9,9,10,10,11,11,13,13,14,14,15,15,16,16,17,17,18,18,19,19,20,20,21,21,22,22,24,24,25,25,26,26,28,28,29,29,30,30,31,31,32,32,33,33,35,35,38,38,40,40,41,41,42,42,43,43,44,44,45,45,46,46,48,48],"right_children":[2,4,6,8,10,12,14,16,18,20,22,24,-1,26,28,30,32,34,36,38,40,42,44,-1,46,48,50,-1,52,54,56,58,60,62,-1,64,-1,-1,66,-1,68,70,72,74,76,78,80,-1,82,-1,-1,-1,-1,-1,-1,-1,-1,-1,-1,-1,-1,-1,-1,-1,-1,-1,-1,-1,-1,-1,-1,-1,-1,-1,-1,-1,-1,-1,-1,-1,-1,-1,-1],"split_conditions":[2.0619503E1,1.5259082E1,1E-1,1.5200751E1,1.6704918E1,2.0633371E1,1.8782204E1,1.5496736E1,1.5696165E1,1.9643513E2,1.4345898E1,1.224E1,2.7316877E-1,2.285283E1,4.4999995E0,1.8521817E2,1.5530151E1,1.4846979E2,1.8278645E1,8.0899935E0,1.9866467E2,1.2661564E1,2.0656496E2,-2.3357464E-1,1.243434E1,3E-1,1.1525623E1,-1.9185793E-1,2.0944498E1,1.5894662E2,1.8997102E2,1.17942116E2,2.1719136E2,1E-1,2.2939916E0,1E-1,-2.2575848E-1,4.7364187E-1,1.5694235E1,7.592456E-1,2.1133673E2,1.1177405E1,1.3104198E1,4.3999996E0,1.675492E1,1.6876558E2,2.285283E1,-1.9008087E-1,1.1263491E2,8.0408625E-2,4.2926705E-1,9.679828E-2,-1.6119719E-3,1.5788453E-2,-5.2259564E-1,5.873091E-1,-7.7409535E-3,-2.1258914E-1,8.973325E-1,5.2710492E-2,-1.2596997E-2,6.3430026E-2,5.3183585E-1,2.2732705E-2,-1.2894309E-2,3.1909057E-1,-2.4118288E-1,-2.192229E-1,-2.1231303E-2,1.08792916E-1,-2.1695624E-1,3.537186E-1,4.4294532E-2,-1.4665101E-1,1.2845491E-1,4.4565418E-1,1.5227244E-2,2.9630703E-1,8.8208534E-2,-7.978228E-2,6.346576E-2,3.1968606E-1,1.041557E-1],"split_indices":[0,0,1,0,0,2,2,2,2,3,2,2,0,0,1,3,2,3,2,2,3,2,3,0,2,1,2,0,0,3,3,3,3,1,0,1,0,0,3,0,3,2,2,1,0,3,0,0,3,0,0,0,0,0,0,0,0,0,0,0,0,0,0,0,0,0,0,0,0,0,0,0,0,0,0,0,0,0,0,0,0,0,0],"split_type":[0,0,0,0,0,0,0,0,0,0,0,0,0,0,0,0,0,0,0,0,0,0,0,0,0,0,0,0,0,0,0,0,0,0,0,0,0,0,0,0,0,0,0,0,0,0,0,0,0,0,0,0,0,0,0,0,0,0,0,0,0,0,0,0,0,0,0,0,0,0,0,0,0,0,0,0,0,0,0,0,0,0,0],"sum_hessian":[1.712E3,1.657E3,5.5E1,1.303E3,3.54E2,2.7E1,2.8E1,1.296E3,7E0,1.14E2,2.4E2,2.5E1,2E0,2.3E1,5E0,4.61E2,8.35E2,4E0,3E0,3.9E1,7.5E1,9.7E1,1.43E2,3E0,2.2E1,2E1,3E0,3E0,2E0,2.01E2,2.6E2,7E0,8.28E2,2E0,2E0,2E0,1E0,1E0,3.8E1,1E0,7.4E1,5.5E1,4.2E1,6.5E1,7.8E1,3E0,1.9E1,1E0,1.9E1,1E0,2E0,1E0,1E0,1.69E2,3.2E1,6E0,2.54E2,3E0,4E0,3.31E2,4.97E2,1E0,1E0,1E0,1E0,1E0,3.7E1,1E1,6.4E1,3.3E1,2.2E1,1.6E1,2.6E1,5.6E1,9E0,2E0,7.6E1,1E0,2E0,1.5E1,4E0,5E0,1.4E1],"tree_param":{"num_deleted":"0","num_feature":"4","num_nodes":"83","size_leaf_vector":"1"}},{"base_weights":[1.0961048E-2,-7.121344E-2,3.19632E-2,-1.5688983E-1,1.4672582E-1,5.307468E-1,1.3773838E-2,1.9273438E-1,-2.0885654E-1,7.518683E-1,7.22389E-2,1.0716597E0,-2.1574397E-1,-6.638612E-1,2.4726504E-2,-3.6080655E-2,1.0477732E0,-1.15957595E-1,-4.8375595E-1,-2.410971E-2,6.966538E-1,2.0499653E-1,2.3924122E0,9.158777E-1,-5.3588307E-1,-8.091354E-1,1.432486E-1,4.2260292E-1,7.449354E-3,2.6511103E-1,-3.3469513E-1,-1.6017811E-1,1.5629894E0,-2.2072813E-1,8.642741E-2,-8.858166E-1,-2.4695128E-1,6.939239E-2,-5.473054E-1,1.9803069E0,-9.389284E-2,-4.125406E-1,8.6837155E-1,7.051236E-1,3.6809654E0,7.212081E-1,-5.7166368E-2,-8.938484E-1,-1.9592245E-1,-2.4141893E-1,-1.0525876E0,1.3069761E0,-5.588852E-2,-1.2458622E0,1.5542281E-2,2.8656182E-1,2.1148408E-2,-1.8430823E-1,-3.3318914E-2,-1.0523376E-1,3.315361E-2,5.6087774E-1,5.0486613E-2,-8.5807275E-3,-9.82083E-2,1.7138678E-1,-3.5016254E-2,-3.058946E-1,2.4854901E-1,-1.3261445E-1,1.4734313E-1,-2.5362639E-2,1.444638E-1,-1.19946204E-1,-2.7169433E-1,-4.825237E-2,7.6674134E-1,-1.9047542E-1,1.3977328E-1,-2.839421E-1,1.8749318E-1,5.0120974E-1,-1.6566378E-1,-6.066709E-1,4.965129E-1,1.9054067E0,2.273794E-1,-1.8119328E-1,2.3749009E-1,-3.1420505E-1,-8.666861E-2,-2.912158E-1,3.573501E-2,-4.443505E-3,-1.6158742E-1,-3.6920115E-1,-1.4626456E-2,-1.7703E-1,6.6838264E-1,-5.69387E-2,6.946292E-1,9.332612E-3,-6.0548E-1,4.656805E-1,2.0394805E-3],"categories":[],"categories_nodes":[],"categories_segments":[],"categories_sizes":[],"default_left":[0,0,0,0,0,0,0,0,0,0,0,0,0,0,0,0,0,0,0,0,0,0,0,0,0,0,0,0,0,0,0,0,0,0,0,0,0,0,0,0,0,0,0,0,0,0,0,0,0,0,0,0,0,0,0,0,0,0,0,0,0,0,0,0,0,0,0,0,0,0,0,0,0,0,0,0,0,0,0,0,0,0,0,0,0,0,0,0,0,0,0,0,0,0,0,0,0,0,0,0,0,0,0,0,0],"id":18,"left_children":[1,3,5,7,9,11,13,15,17,-1,19,21,23,25,27,29,31,33,35,37,39,41,43,45,47,49,-1,51,53,55,57,59,61,63,65,67,69,71,73,75,77,79,81,83,85,-1,87,89,91,93,95,97,99,101,103,-1,-1,-1,-1,-1,-1,-1,-1,-1,-1,-1,-1,-1,-1,-1,-1,-1,-1,-1,-1,-1,-1,-1,-1,-1,-1,-1,-1,-1,-1,-1,-1,-1,-1,-1,-1,-1,-1,-1,-1,-1,-1,-1,-1,-1,-1,-1,-1,-1,-1],"loss_changes":[2.9586418E0,6.539634E0,1.2376728E1,4.600627E0,1.7218403E1,1.9612957E1,9.798494E0,6.494114E0,5.5366983E0,0E0,5.852462E0,3.1559692E1,8.098606E0,3.8683605E0,8.919527E0,2.5171168E0,4.6068482E0,3.5177345E0,5.017787E0,4.1961703E0,1.3378176E1,7.7320952E0,2.1320232E1,7.3776035E0,1.8936758E0,2.37191E0,0E0,2.292395E1,1.2647347E1,1.8129153E0,8.0735815E-1,1.935468E-1,1.8234663E0,2.22371E0,5.681115E0,5.433378E0,5.4011097E0,4.6721716E0,3.2495356E-1,6.5722046E0,3.0216265E0,6.1311746E0,1.1180544E1,1.8891518E1,4.201996E1,0E0,2.3346622E0,4.403162E-1,2.5565424E0,4.634649E-1,2.2639503E0,3.451041E1,1.1870774E1,7.9534903E0,1.662464E1,0E0,0E0,0E0,0E0,0E0,0E0,0E0,0E0,0E0,0E0,0E0,0E0,0E0,0E0,0E0,0E0,0E0,0E0,0E0,0E0,0E0,0E0,0E0,0E0,0E0,0E0,0E0,0E0,0E0,0E0,0E0,0E0,0E0,0E0,0E0,0E0,0E0,0E0,0E0,0E0,0E0,0E0,0E0,0E0,0E0,0E0,0E0,0E0,0E0,0E0],"parents":[2147483647,0,0,1,1,2,2,3,3,4,4,5,5,6,6,7,7,8,8,10,10,11,11,12,12,13,13,14,14,15,15,16,16,17,17,18,18,19,19,20,20,21,21,22,22,23,23,24,24,25,25,27,27,28,28,29,29,30,30,31,31,32,32,33,33,34,34,35,35,36,36,37,37,38,38,39,39,40,40,41,41,42,42,43,43,44,44,46,46,47,47,48,48,49,49,50,50,51,51,52,52,53,53,54,54],"right_children":[2,4,6,8,10,12,14,16,18,-1,20,22,24,26,28,30,32,34,36,38,40,42,44,46,48,50,-1,52,54,56,58,60,62,64,66,68,70,72,74,76,78,80,82,84,86,-1,88,90,92,94,96,98,100,102,104,-1,-1,-1,-1,-1,-1,-1,-1,-1,-1,-1,-1,-1,-1,-1,-1,-1,-1,-1,-1,-1,-1,-1,-1,-1,-1,-1,-1,-1,-1,-1,-1,-1,-1,-1,-1,-1,-1,-1,-1,-1,-1,-1,-1,-1,-1,-1,-1,-1,-1],"split_conditions":[1.2397658E2,1.3832001E1,1.4044035E2,1.0661107E1,1.4009083E1,1.6516901E1,1.4608827E2,1.4E0,8.6734856E1,7.518683E-1,7.499999E0,1.3493999E1,1.2683972E2,2.1626984E1,1.5894662E2,4.822577E1,-1.1200833E0,5.5835434E1,2E-1,1.91588E1,1E1,1.5150749E1,1.35999E2,1.3778334E0,1.3285866E2,1.4357127E2,1.432486E-1,7.025751E0,1.6104431E2,-7.221668E-1,1.4861668E0,-1.3471667E0,2.8E0,1.4759999E1,7.499506E-4,1.2009584E2,9.969501E0,1.5496736E1,6.5E0,7.342588E0,1.7462784E1,3.3000002E0,1.8600748E1,1.4904173E1,8.388251E0,7.212081E-1,3.6778338E0,2.0948164E1,2.8486671E0,1E-1,4.7999997E0,1.8132502E0,2.2828087E1,5.2465835E0,1.618219E2,2.8656182E-1,2.1148408E-2,-1.8430823E-1,-3.3318914E-2,-1.0523376E-1,3.315361E-2,5.6087774E-1,5.0486613E-2,-8.5807275E-3,-9.82083E-2,1.7138678E-1,-3.5016254E-2,-3.058946E-1,2.4854901E-1,-1.3261445E-1,1.4734313E-1,-2.5362639E-2,1.444638E-1,-1.19946204E-1,-2.7169433E-1,-4.825237E-2,7.6674134E-1,-1.9047542E-1,1.3977328E-1,-2.839421E-1,1.8749318E-1,5.0120974E-1,-1.6566378E-1,-6.066709E-1,4.965129E-1,1.9054067E0,2.273794E-1,-1.8119328E-1,2.3749009E-1,-3.1420505E-1,-8.666861E-2,-2.912158E-1,3.573501E-2,-4.443505E-3,-1.6158742E-1,-3.6920115E-1,-1.4626456E-2,-1.7703E-1,6.6838264E-1,-5.69387E-2,6.946292E-1,9.332612E-3,